-3.338681459426879883e-01,3.655207529664039612e-02,6.107570230960845947e-02,-6.094817444682121277e-02,2.171708941459655762e-01,-5.598446354269981384e-02,-1.143826842308044434e-01,-4.683300256729125977e-01,1.802501231431961060e-01,1.353825479745864868e-01,2.517501115798950195e-01,4.202655702829360962e-02,3.626105189323425293e-01,4.177114963531494141e-01,1.337760537862777710e-01,1.461366266012191772e-01
2.304839529097080231e-02,1.976813971996307373e-01,1.041194573044776917e-01,-3.547667860984802246e-01,2.984692454338073730e-01,2.052448540925979614e-01,3.982444405555725098e-01,2.117785997688770294e-02,-2.507190704345703125e-01,-2.207200080156326294e-01,4.302796721458435059e-01,-1.131519898772239685e-01,-3.140870928764343262e-01,2.226220965385437012e-01,-1.291623115539550781e-01,8.406336605548858643e-02
-1.734307222068309784e-02,-1.374864876270294189e-01,-2.049872726202011108e-01,-2.398033291101455688e-01,2.534261047840118408e-01,3.757754266262054443e-01,2.821578681468963623e-01,-2.440218180418014526e-01,1.002892479300498962e-01,1.075499057769775391e-01,-1.781241893768310547e-01,-2.048277854919433594e-01,3.690255060791969299e-02,1.325698792934417725e-01,1.673126965761184692e-01,1.495510339736938477e-02
-2.713858187198638916e-01,-1.147867217659950256e-01,-1.659967899322509766e-01,-5.631477758288383484e-02,6.976769119501113892e-02,-4.598889648914337158e-01,4.504746794700622559e-01,3.768530488014221191e-01,6.946822404861450195e-01,2.261474579572677612e-01,2.808203399181365967e-01,7.816087454557418823e-02,3.585340688005089760e-03,4.569362699985504150e-01,3.858762085437774658e-01,1.291196048259735107e-01
3.294288814067840576e-01,-2.006817609071731567e-01,3.032315671443939209e-01,-8.898723125457763672e-02,2.835680842399597168e-01,6.339231878519058228e-02,1.124827750027179718e-02,-2.223711460828781128e-01,3.024154007434844971e-01,1.940650306642055511e-02,-1.218622103333473206e-01,-8.837734162807464600e-02,-2.857100665569305420e-01,2.802490815520286560e-02,3.242575526237487793e-01,1.469097286462783813e-01
3.193389475345611572e-01,-1.829847246408462524e-01,-2.383827269077301025e-01,2.363870739936828613e-01,3.286028653383255005e-02,3.864726126194000244e-01,-7.912879437208175659e-02,-2.187452316284179688e-01,4.154200255870819092e-01,-1.227205097675323486e-01,9.828002005815505981e-02,-7.986658811569213867e-02,1.658658981323242188e-01,-1.123029738664627075e-01,1.404427886009216309e-01,9.800317883491516113e-02
-1.112258285284042358e-01,-8.588671917095780373e-04,2.901762425899505615e-01,1.805738210678100586e-01,-8.952908962965011597e-02,-4.150488600134849548e-02,6.880246847867965698e-02,5.398252233862876892e-02,-8.035032451152801514e-02,7.653072476387023926e-02,4.164055883884429932e-01,2.776142656803131104e-01,-1.930425316095352173e-01,1.442021969705820084e-02,2.557512819766998291e-01,-1.023222655057907104e-01
1.176589354872703552e-01,2.836191356182098389e-01,1.097498014569282532e-01,-1.857866048812866211e-01,1.493469774723052979e-01,2.307584881782531738e-01,1.562080234289169312e-01,1.485170125961303711e-01,1.671404540538787842e-01,1.116658151149749756e-01,-3.177334554493427277e-03,4.816325306892395020e-01,1.964397877454757690e-01,-4.863426685333251953e-01,1.349743008613586426e-01,2.208967357873916626e-01
-1.036015674471855164e-01,7.507508248090744019e-02,4.133183360099792480e-01,1.333516389131546021e-01,1.521287411451339722e-01,-5.325986817479133606e-02,8.964654058218002319e-02,-2.685020267963409424e-01,1.725270450115203857e-01,3.221021220088005066e-02,-3.401921130716800690e-03,-3.661828637123107910e-01,-2.201343476772308350e-01,-3.154872953891754150e-01,2.585845589637756348e-01,5.367955937981605530e-02
4.521512985229492188e-02,2.929987013339996338e-01,1.560439765453338623e-01,-1.805256903171539307e-01,2.576442360877990723e-01,1.534557901322841644e-02,-3.306078016757965088e-01,3.640075325965881348e-01,-2.447922378778457642e-01,1.406876891851425171e-01,-2.169198095798492432e-01,-4.357346519827842712e-02,2.308535873889923096e-01,4.600529670715332031e-01,-1.217138543725013733e-01,-1.488730907440185547e-01
2.629125416278839111e-01,-2.158567756414413452e-01,3.443982899188995361e-01,-4.016858339309692383e-02,-1.637045497773215175e-04,7.735466957092285156e-02,-2.370910197496414185e-01,5.037152674049139023e-03,-4.223184287548065186e-01,-5.573425889015197754e-01,1.899707913398742676e-01,1.782167255878448486e-01,1.316343545913696289e-01,1.442313641309738159e-01,-6.025943905115127563e-02,-9.523227810859680176e-02
-2.128878682851791382e-01,8.514798432588577271e-02,1.091785505414009094e-01,2.533820271492004395e-01,3.383182287216186523e-01,-1.111879721283912659e-01,4.701300859451293945e-01,1.546729207038879395e-01,4.585385322570800781e-01,-3.177911043167114258e-01,2.424857467412948608e-01,-1.121850982308387756e-01,7.767158746719360352e-02,-7.836744934320449829e-02,-1.339220851659774780e-01,2.309853732585906982e-01
1.404137443751096725e-02,4.326539337635040283e-01,6.326775997877120972e-02,-1.081538945436477661e-01,-6.159801781177520752e-02,1.463564671576023102e-02,-2.864789366722106934e-01,9.262741357088088989e-02,5.126072168350219727e-01,2.310662269592285156e-01,-1.002214401960372925e-01,-1.796316951513290405e-01,-7.881899178028106689e-02,2.992651797831058502e-02,-2.198477387428283691e-01,1.412817984819412231e-01
1.600671112537384033e-01,1.042711362242698669e-02,3.420911133289337158e-01,-3.976656496524810791e-02,-3.383241593837738037e-01,1.183963790535926819e-01,-7.020092606544494629e-01,1.168172210454940796e-01,-2.967439591884613037e-02,-5.529449321329593658e-03,2.078371345996856689e-01,-4.563969075679779053e-01,2.685483694076538086e-01,1.312799938023090363e-02,-2.419326901435852051e-01,1.949743777513504028e-01
3.192842006683349609e-02,2.095018178224563599e-01,-3.554114401340484619e-01,4.237467944622039795e-01,1.518976837396621704e-01,-2.044482529163360596e-01,-4.830192327499389648e-01,-1.304801255464553833e-01,1.805183105170726776e-02,1.511420011520385742e-01,-8.281411975622177124e-02,-1.206014677882194519e-02,-2.002348303794860840e-01,3.293211162090301514e-01,-2.736119031906127930e-01,7.759186625480651855e-02
3.010737299919128418e-01,-5.379093289375305176e-01,1.084633544087409973e-01,2.393569350242614746e-01,-1.670237034559249878e-01,-2.995117940008640289e-02,-6.326867640018463135e-02,-1.388250440359115601e-01,-3.910374939441680908e-01,4.212439656257629395e-01,1.512735337018966675e-01,5.526947323232889175e-03,-9.917196631431579590e-02,-2.023667395114898682e-01,-6.508876103907823563e-04,-1.505978256464004517e-01
