7.015970535576343536e-03,2.636044099926948547e-02,4.084053635597229004e-02,5.811355076730251312e-03,4.675210267305374146e-02,4.936121031641960144e-02,5.809879861772060394e-03,4.052509367465972900e-02,-1.400191988795995712e-02,-3.425159491598606110e-03,-7.912456989288330078e-03,2.692388743162155151e-02,2.856640331447124481e-02,3.618518263101577759e-02,2.666297741234302521e-02,4.228119552135467529e-02,8.456176146864891052e-03,4.581592231988906860e-02,2.785471640527248383e-02,4.150484874844551086e-02,1.398583874106407166e-02,-8.185230195522308350e-03,4.530079662799835205e-03,6.641493178904056549e-03,3.138026595115661621e-02,2.366046980023384094e-02,2.432230487465858459e-02,1.992101548239588737e-03,1.126748602837324142e-02,6.497710943222045898e-03,1.931793056428432465e-02,3.097466193139553070e-02,-3.170684678480029106e-03,1.731212623417377472e-02,3.253740072250366211e-02,-2.392139285802841187e-02,1.402731984853744507e-03,1.555864606052637100e-02,5.267811007797718048e-03,2.145634777843952179e-02,5.574754322879016399e-04,5.957429762929677963e-03,1.755278906784951687e-03,-4.554047062993049622e-02,-8.440037071704864502e-02,-4.109765589237213135e-02,2.461234293878078461e-02,-9.943603537976741791e-03,-3.524093329906463623e-02,1.892994716763496399e-02,-7.099953945726156235e-03,-1.942591741681098938e-02,3.564684838056564331e-02,-1.636551693081855774e-02,3.742440044879913330e-02,1.892235502600669861e-02,-1.878406666219234467e-02,1.696443185210227966e-02,1.512258220463991165e-02,6.695428746752440929e-04,5.389605183154344559e-03,1.159402355551719666e-02,-1.313013583421707153e-02,-2.116172015666961670e-02,-1.696093939244747162e-02,-2.217504754662513733e-02,-8.543120324611663818e-02,-4.367227479815483093e-02,-4.651421681046485901e-02,-2.957549504935741425e-02,-3.644090145826339722e-02,-5.661869794130325317e-02,-6.201158463954925537e-02,6.773401051759719849e-03,2.378219179809093475e-02,5.778202414512634277e-02,2.608300372958183289e-02,-1.890433207154273987e-02,-6.788571830838918686e-03,1.267356681637465954e-03,1.659233495593070984e-02,-2.090663462877273560e-02,1.094549428671598434e-02,2.592110820114612579e-02,1.660805940628051758e-02,2.773487567901611328e-02,5.974100437015295029e-03,3.859425708651542664e-02,5.111697129905223846e-03,2.263990975916385651e-02,-1.314778067171573639e-02,-3.619840741157531738e-02,-9.530015289783477783e-02,-1.358594149351119995e-01,-1.149407401680946350e-01,-1.132968068122863770e-01,-9.586428850889205933e-02,-2.827315032482147217e-01,-1.484165340662002563e-01,-6.251182407140731812e-02,-1.151227056980133057e-01,8.581627160310745239e-03,6.963887065649032593e-02,1.659273169934749603e-02,-1.379943173378705978e-02,8.603976457379758358e-04,6.496575474739074707e-02,1.087876851670444012e-03,-1.076130568981170654e-02,3.500806540250778198e-02,-7.873285794630646706e-04,1.918056164868175983e-03,1.929012686014175415e-02,3.364529833197593689e-02,4.362826049327850342e-02,5.300700291991233826e-02,3.428283706307411194e-02,1.750027760863304138e-02,-9.352580644190311432e-03,-5.603779852390289307e-02,-1.361722052097320557e-01,-1.928901225328445435e-01,-1.058636158704757690e-01,-8.878897130489349365e-02,-1.017225608229637146e-01,-1.358000189065933228e-01,-1.903385370969772339e-01,-1.095116734504699707e-01,-4.034721478819847107e-02,2.803002484142780304e-02,5.418742075562477112e-02,3.343144804239273071e-02,-9.054593741893768311e-02,7.815817743539810181e-02,6.922400742769241333e-02,7.451941817998886108e-02,1.791591942310333252e-02,-2.901279367506504059e-02,-3.635509172454476357e-03,1.097813341766595840e-02,-6.585424765944480896e-03,4.507002979516983032e-02,4.859191179275512695e-02,-1.570182852447032928e-02,-3.231025114655494690e-02,4.876004904508590698e-02,-3.612976521253585815e-02,-5.420023575425148010e-02,-8.184442669153213501e-02,-1.097840629518032074e-02,-4.294748976826667786e-02,-1.142609864473342896e-02,2.584366314113140106e-02,-8.378322422504425049e-02,-1.317743062973022461e-01,-6.585470587015151978e-02,-7.430846244096755981e-02,-5.763841792941093445e-02,-2.182624116539955139e-02,-5.325097590684890747e-02,-1.586556136608123779e-01,-1.507808864116668701e-01,-8.922529965639114380e-02,3.424310311675071716e-02,4.981210082769393921e-02,-8.116610348224639893e-03,-1.645668962737545371e-04,-1.875991560518741608e-02,2.169834263622760773e-02,-2.016832865774631500e-02,3.819503635168075562e-02,4.609970375895500183e-02,-2.226243726909160614e-03,2.898366563022136688e-02,-3.132435306906700134e-02,-1.684942841529846191e-02,3.222016617655754089e-02,1.052549332380294800e-01,-4.837252199649810791e-02,9.709994494915008545e-02,-2.737201051786541939e-03,-4.967657849192619324e-03,3.617890179157257080e-02,8.945104666054248810e-03,3.837166726589202881e-02,1.571688950061798096e-01,4.608971253037452698e-02,1.652116514742374420e-02,1.808651257306337357e-03,-5.514507368206977844e-02,-2.981334738433361053e-02,3.983623906970024109e-02,5.659199133515357971e-02,2.412763237953186035e-02,8.193401992321014404e-02,2.428612112998962402e-02,3.721008822321891785e-02,1.433999836444854736e-02,3.627429157495498657e-02,7.035636156797409058e-02,-4.094879329204559326e-02,-1.193529367446899414e-01,-1.429653316736221313e-01,-1.129973903298377991e-01,-6.637085974216461182e-02,1.092618107795715332e-01,9.474018216133117676e-02,8.928651362657546997e-02,7.011122256517410278e-02,6.011225283145904541e-02,8.360756933689117432e-02,9.532038867473602295e-02,1.051413267850875854e-01,1.320355236530303955e-01,4.612632095813751221e-02,4.658789187669754028e-02,6.930232793092727661e-02,-1.237538177520036697e-02,1.826819777488708496e-02,4.724400490522384644e-02,-2.044094959273934364e-03,9.391799569129943848e-03,8.006796240806579590e-02,1.858643069863319397e-02,1.556454971432685852e-02,-1.759903505444526672e-02,3.814684692770242691e-03,9.327057749032974243e-02,-2.422865852713584900e-02,-2.007571011781692505e-01,-9.156028926372528076e-02,-3.609752655029296875e-02,1.506128907203674316e-01,1.747196763753890991e-01,5.690033361315727234e-02,8.188161998987197876e-02,5.688565224409103394e-02,1.817898079752922058e-02,6.991860270500183105e-02,1.591049134731292725e-01,6.998189538717269897e-02,1.093526650220155716e-02,5.929326638579368591e-02,8.482330595143139362e-04,-6.746164709329605103e-02,2.772680483758449554e-02,-2.354094991460442543e-03,-8.805920183658599854e-02,1.692319214344024658e-01,1.141814291477203369e-01,3.769770637154579163e-02,1.024638116359710693e-02,3.416485711932182312e-02,6.049029901623725891e-02,4.471668973565101624e-02,7.951388135552406311e-03,-1.492778956890106201e-01,-2.029873579740524292e-01,-9.698501974344253540e-02,-2.584816142916679382e-02,8.035016804933547974e-02,4.748804122209548950e-02,2.894789213314652443e-03,5.592790991067886353e-02,-2.182240597903728485e-02,-1.839146763086318970e-02,3.729654103517532349e-02,9.713582694530487061e-02,-4.876739159226417542e-02,-3.448687121272087097e-02,-5.470504984259605408e-02,-6.578001379966735840e-02,-2.227818220853805542e-02,-6.532716006040573120e-02,6.315439939498901367e-02,-3.797639533877372742e-02,1.543165594339370728e-01,9.423284977674484253e-02,-1.880169264040887356e-03,5.823104828596115112e-02,3.076229803264141083e-02,-3.828763961791992188e-03,-7.831004448235034943e-03,-2.309489063918590546e-02,-8.835971355438232422e-02,-1.929195374250411987e-01,-2.479295581579208374e-01,-1.107726767659187317e-01,-2.441560849547386169e-02,1.667300052940845490e-02,-7.451172173023223877e-02,-1.214693710207939148e-01,-1.282905042171478271e-01,-1.455096006393432617e-01,-1.286240667104721069e-01,-8.228216320276260376e-02,-9.780639410018920898e-02,-1.920094788074493408e-01,-1.921980530023574829e-01,-1.131335198879241943e-01,-8.784136921167373657e-02,-7.503407448530197144e-02,4.140037298202514648e-02,1.538641052320599556e-03,7.775041460990905762e-02,1.567453742027282715e-01,6.860728561878204346e-02,-1.035242713987827301e-02,2.895637787878513336e-02,1.621795259416103363e-02,9.568099677562713623e-02,2.580812387168407440e-02,-8.309712260961532593e-02,-1.134041175246238708e-01,-1.421710699796676636e-01,-5.604517832398414612e-02,2.194474078714847565e-02,6.200471892952919006e-03,1.295113377273082733e-02,-1.227335706353187561e-01,-9.382113814353942871e-02,-7.518325746059417725e-02,1.058903615921735764e-02,7.276416569948196411e-02,8.000322431325912476e-02,2.223463542759418488e-02,-7.967511564493179321e-02,-1.751140058040618896e-01,-2.103611268103122711e-02,2.577341161668300629e-03,9.493131935596466064e-02,7.155258953571319580e-02,-2.573643252253532410e-02,-2.489385195076465607e-02,7.601115852594375610e-02,-6.279337219893932343e-03,4.741999506950378418e-02,1.078731194138526917e-02,4.397945478558540344e-02,-4.403322935104370117e-03,-5.876963585615158081e-02,-1.631012409925460815e-01,-2.042723633348941803e-02,8.483371697366237640e-03,3.360761702060699463e-02,-2.774325571954250336e-02,-1.213796529918909073e-02,7.436327636241912842e-03,-3.934637829661369324e-02,7.009852677583694458e-02,1.143639162182807922e-01,1.755590289831161499e-01,7.989590615034103394e-02,5.865356419235467911e-03,-5.998394335620105267e-04,-1.091948673129081726e-01,-1.829396188259124756e-02,-9.463739581406116486e-03,1.154226884245872498e-01,1.396653354167938232e-01,-1.276173889636993408e-01,-1.327419579029083252e-01,-6.938398629426956177e-02,6.589801050722599030e-03,4.028246924281120300e-02,1.087734848260879517e-02,6.353829056024551392e-02,-1.573806069791316986e-02,1.970969736576080322e-01,3.744946047663688660e-02,1.441795262508094311e-03,6.626304984092712402e-02,8.348753303289413452e-02,1.012804433703422546e-01,1.702165454626083374e-01,8.920657634735107422e-02,1.504083126783370972e-01,2.074502855539321899e-01,2.182158678770065308e-01,2.744653224945068359e-01,1.510774940252304077e-01,6.960261613130569458e-02,-3.070842288434505463e-02,-1.663489080965518951e-02,1.272162795066833496e-01,7.749233394861221313e-02,3.756405413150787354e-02,-1.248288229107856750e-01,-2.599920928478240967e-01,-1.905177086591720581e-01,-1.971389502286911011e-01,-8.887204527854919434e-02,2.938440069556236267e-02,-2.689962740987539291e-03,4.316092282533645630e-02,1.097096875309944153e-01,2.448442578315734863e-01,9.543486684560775757e-02,-7.495783269405364990e-03,1.209760159254074097e-01,1.373510807752609253e-01,1.879884004592895508e-01,2.091992944478988647e-01,1.514694541692733765e-01,1.909497380256652832e-01,2.446931302547454834e-01,2.022037953138351440e-01,1.681645810604095459e-01,1.462185382843017578e-01,1.029220521450042725e-01,5.210381001234054565e-02,1.158396750688552856e-01,5.659158900380134583e-02,-4.341685026884078979e-02,1.660612598061561584e-02,-1.305366903543472290e-01,-2.841080427169799805e-01,-2.313842773437500000e-01,-9.960026293992996216e-02,-7.782567758113145828e-03,8.007298223674297333e-03,5.682739987969398499e-02,-2.399160293862223625e-03,5.262310430407524109e-02,8.369045704603195190e-02,-4.202384501695632935e-02,1.361037045717239380e-02,7.230512052774429321e-02,8.093138784170150757e-02,1.756382435560226440e-01,2.864929735660552979e-01,2.155708521604537964e-01,2.223513722419738770e-01,1.642187982797622681e-01,1.746408194303512573e-01,1.516320109367370605e-01,1.149608865380287170e-01,1.615856587886810303e-01,6.978368014097213745e-02,-3.678112477064132690e-02,-1.191196870058774948e-02,5.513029545545578003e-02,1.960701495409011841e-01,5.790419504046440125e-02,-3.625961244106292725e-01,-3.170048892498016357e-01,-7.402441650629043579e-02,1.219988428056240082e-02,3.022130578756332397e-02,-1.416660472750663757e-02,1.339042931795120239e-02,-7.593311369419097900e-02,-6.876305490732192993e-02,-1.184551864862442017e-01,-8.313034474849700928e-02,-4.782264679670333862e-02,6.979723274707794189e-02,-7.501413580030202866e-03,4.445338994264602661e-02,1.095268428325653076e-01,1.993196159601211548e-01,1.321226954460144043e-01,1.216101869940757751e-01,1.437986642122268677e-01,6.349847465753555298e-02,6.454906612634658813e-02,-3.169226646423339844e-02,-1.185910776257514954e-01,-9.789778292179107666e-02,-1.015664264559745789e-01,-4.151403531432151794e-02,-1.660625487565994263e-01,-3.335017263889312744e-01,-4.119987785816192627e-01,-2.113108336925506592e-01,1.258612237870693207e-02,4.998659715056419373e-02,9.241931256838142872e-04,-3.038243018090724945e-02,-1.128988042473793030e-01,-1.341275423765182495e-01,-1.683453768491744995e-01,-2.734830677509307861e-01,-1.935234069824218750e-01,-2.487341761589050293e-01,-1.249116957187652588e-01,-6.569871306419372559e-02,-3.588223829865455627e-02,-1.575095020234584808e-02,2.761656232178211212e-02,5.777232721447944641e-02,1.308877915143966675e-01,3.757252171635627747e-02,1.093843206763267517e-02,-6.338214874267578125e-02,-2.304591834545135498e-01,-1.931725591421127319e-01,-9.182314574718475342e-02,-1.089436635375022888e-01,-2.293458729982376099e-01,-2.308824658393859863e-01,-3.120413720607757568e-01,-8.671059459447860718e-02,-5.183685943484306335e-02,1.796487160027027130e-02,5.378569010645151138e-03,-9.886856190860271454e-03,-1.012055352330207825e-01,-2.523251771926879883e-01,-2.390757948160171509e-01,-2.457970678806304932e-01,-3.439248800277709961e-01,-3.814542293548583984e-01,-2.830693423748016357e-01,-1.977413296699523926e-01,-7.233614474534988403e-02,-1.500782519578933716e-01,-4.176948592066764832e-02,1.019322499632835388e-01,3.363011870533227921e-03,2.189338766038417816e-02,-3.689539059996604919e-02,-8.084374666213989258e-02,-2.447224855422973633e-01,-1.114632412791252136e-01,-5.410103127360343933e-02,-2.260305881500244141e-01,-4.582731425762176514e-01,-3.640906214714050293e-01,-2.031543999910354614e-01,4.119823873043060303e-02,2.506307512521743774e-02,1.318311225622892380e-02,3.517818078398704529e-02,4.005483165383338928e-02,-6.576258689165115356e-02,-9.722991287708282471e-02,-1.278252005577087402e-01,-1.915217489004135132e-01,-1.969145983457565308e-01,-1.975284218788146973e-01,-2.727269530296325684e-01,-2.826956808567047119e-01,-1.529485136270523071e-01,-1.229324638843536377e-01,-1.141577884554862976e-01,-8.085986482910811901e-04,-4.946708679199218750e-02,3.764259861782193184e-03,-5.671907961368560791e-02,-6.331002712249755859e-02,-9.595092386007308960e-02,-1.368837207555770874e-01,-5.656534060835838318e-02,-2.611058354377746582e-01,-4.234065413475036621e-01,-3.443091213703155518e-01,-9.737629443407058716e-02,-4.484263248741626740e-03,3.880159184336662292e-02,-2.066224813461303711e-02,4.220344498753547668e-02,1.355572883039712906e-02,-6.007622927427291870e-02,-8.976746350526809692e-02,-6.538789719343185425e-02,-8.382829278707504272e-02,-9.013078361749649048e-02,-1.460926085710525513e-01,-9.848289936780929565e-02,-1.893743574619293213e-01,-1.677795052528381348e-01,-1.701786965131759644e-01,-6.318307667970657349e-02,4.799024760723114014e-02,1.213843002915382385e-03,4.130268096923828125e-02,2.600298635661602020e-02,-1.142268478870391846e-01,-1.281847506761550903e-01,-1.539968848228454590e-01,-1.588380485773086548e-01,-1.393275856971740723e-01,-2.654801905155181885e-01,-1.814219057559967041e-01,-2.658096328377723694e-02,1.398534327745437622e-02,1.838357187807559967e-02,-1.431434229016304016e-02,3.763309866189956665e-02,1.299184095114469528e-02,-1.662520691752433777e-02,8.346818387508392334e-02,7.453409582376480103e-02,6.441414356231689453e-02,-1.435860339552164078e-02,1.000846922397613525e-01,3.990543633699417114e-02,5.115973204374313354e-02,-8.635991811752319336e-02,2.086509950459003448e-02,-8.599436283111572266e-02,-2.743978612124919891e-02,1.475505065172910690e-03,2.073699980974197388e-02,-9.251214563846588135e-02,-2.189408242702484131e-01,-2.342063337564468384e-01,-1.816347539424896240e-01,-1.896046996116638184e-01,-1.822477430105209351e-01,-1.557019948959350586e-01,-1.028863042593002319e-01,-1.095113437622785568e-02,-6.436890107579529285e-04,4.447558522224426270e-02,-1.550409942865371704e-02,-1.353427115827798843e-02,-1.801288686692714691e-02,-5.829691886901855469e-03,6.412231177091598511e-02,2.055935375392436981e-02,5.249273031949996948e-02,1.104357540607452393e-01,1.457359194755554199e-01,2.692662924528121948e-02,6.947543472051620483e-02,1.311798347160220146e-03,4.677046556025743484e-03,-4.969411343336105347e-02,2.776473760604858398e-02,-6.958895921707153320e-02,-3.548455238342285156e-02,-1.139597743749618530e-01,-1.452168673276901245e-01,-1.851808279752731323e-01,-2.207382768392562866e-01,-2.595361173152923584e-01,-1.866419017314910889e-01,-1.070727780461311340e-01,-5.646435543894767761e-02,-1.355451252311468124e-02,3.711894899606704712e-02,4.854960367083549500e-02,4.033464565873146057e-02,6.960885599255561829e-03,-1.172979455441236496e-02,7.291187066584825516e-03,2.185555547475814819e-02,6.959466636180877686e-02,-4.914177581667900085e-02,5.417566280812025070e-03,6.485258787870407104e-02,-3.536098450422286987e-02,5.909516662359237671e-02,-2.249839343130588531e-02,-8.098119869828224182e-03,-2.858273126184940338e-02,-4.089506343007087708e-02,-1.095086708664894104e-01,-1.183891147375106812e-01,-1.065395399928092957e-01,-1.534003764390945435e-01,-1.559405177831649780e-01,-2.303102463483810425e-01,-1.273219436407089233e-01,-6.021461263298988342e-02,-5.598591640591621399e-02,-5.006252974271774292e-02,-1.429244875907897949e-02,1.507083699107170105e-02,3.294010087847709656e-02,4.108171164989471436e-02,2.750302478671073914e-02,3.304814919829368591e-02,4.830291122198104858e-02,6.265833228826522827e-02,2.168613374233245850e-01,5.623760446906089783e-02,7.678093761205673218e-02,2.574476599693298340e-02,-1.294222325086593628e-01,9.525758773088455200e-02,6.176454201340675354e-02,-5.789200961589813232e-02,-2.638161741197109222e-02,-1.244863867759704590e-01,-5.505960434675216675e-02,-1.258042752742767334e-01,-1.316642761230468750e-01,-1.277236938476562500e-01,-1.271082013845443726e-01,-8.821471035480499268e-02,-8.467074483633041382e-02,7.275356445461511612e-03,3.864269331097602844e-02,-5.960360169410705566e-02,-2.588698640465736389e-02,3.372265957295894623e-03,-1.585870631970465183e-03,1.456512883305549622e-02,1.135792190325446427e-04,3.845401108264923096e-02,3.941967338323593140e-02,5.697931349277496338e-02,2.088912576436996460e-01,2.666589803993701935e-03,9.513007849454879761e-02,1.183769106864929199e-01,1.778512001037597656e-01,2.167229801416397095e-01,1.938487738370895386e-01,4.230288043618202209e-02,1.168069317936897278e-01,1.106756478548049927e-01,-3.745321184396743774e-02,1.021686039166525006e-04,6.289357692003250122e-02,9.248087555170059204e-02,-7.861908525228500366e-02,1.812899671494960785e-02,3.722503408789634705e-02,2.985916286706924438e-02,6.410360336303710938e-02,-1.583965308964252472e-02,1.705912686884403229e-02,1.903040520846843719e-02,4.266889765858650208e-02,1.712112873792648315e-02,2.202740870416164398e-02,-1.966388337314128876e-02,4.807465523481369019e-02,7.773584127426147461e-02,1.248561963438987732e-01,1.610799431800842285e-01,1.441100239753723145e-01,1.861471831798553467e-01,1.925505399703979492e-01,2.103704959154129028e-01,1.840441972017288208e-01,1.782722026109695435e-01,1.893329769372940063e-01,2.803165912628173828e-01,1.746086329221725464e-01,2.167138010263442993e-01,1.669890731573104858e-01,1.446743309497833252e-01,-1.335673686116933823e-02,2.880823425948619843e-02,8.200305700302124023e-02,6.588600575923919678e-02,9.656803682446479797e-03,4.229835048317909241e-02,-2.030355483293533325e-02,-5.553670227527618408e-03,-5.635986104607582092e-03,3.029569983482360840e-02,-1.450506690889596939e-02,1.073473971337080002e-02,2.473089098930358887e-02,-1.079302001744508743e-02,1.719170622527599335e-02,-6.715701427310705185e-03,-1.350600272417068481e-03,-1.156898308545351028e-02,-8.960235863924026489e-03,3.944567590951919556e-02,7.002703100442886353e-02,5.531966313719749451e-02,3.621049225330352783e-02,6.617005914449691772e-02,2.223233133554458618e-02,3.347581997513771057e-02,1.001193840056657791e-02,6.353036314249038696e-02,3.736750409007072449e-02,1.669425517320632935e-02,4.251423105597496033e-02,-4.706661216914653778e-03,5.956364795565605164e-03,1.890387065941467881e-04,-1.590179279446601868e-02,-5.849091801792383194e-03,8.805924095213413239e-03
-7.207067310810089111e-02,-5.078519135713577271e-02,-6.529492884874343872e-02,-6.070165708661079407e-02,-5.997787043452262878e-02,-4.901876673102378845e-02,-1.625711098313331604e-02,-7.258010096848011017e-03,-7.086925953626632690e-02,-5.868635326623916626e-02,-8.565533906221389771e-03,-5.830334499478340149e-02,-6.277609616518020630e-02,-6.151748821139335632e-02,-2.169794635847210884e-03,-3.170426189899444580e-02,-3.534872457385063171e-02,-1.892510801553726196e-03,-6.462264060974121094e-02,-4.481493309140205383e-02,-2.006602706387639046e-03,-3.680403530597686768e-02,-4.586063325405120850e-02,-2.149724029004573822e-02,-4.598402231931686401e-02,-2.634345181286334991e-02,-4.435797035694122314e-02,-5.836186930537223816e-02,-6.277006119489669800e-02,-4.213066026568412781e-02,-3.632269799709320068e-02,-3.140158485621213913e-03,-9.600238874554634094e-03,-1.456821709871292114e-02,-4.888616129755973816e-02,-1.036288123577833176e-02,-3.667146340012550354e-02,-6.693376693874597549e-03,-2.996804378926753998e-02,-3.245889395475387573e-02,-3.592578927055001259e-03,-1.261700317263603210e-02,-5.755423381924629211e-02,-3.535956516861915588e-02,1.337751629762351513e-03,-1.672806590795516968e-02,-2.523351646959781647e-02,-3.399287536740303040e-02,-3.334316192194819450e-03,-6.186309084296226501e-02,-6.571269035339355469e-02,-4.858688265085220337e-02,-6.765071768313646317e-03,-3.971666842699050903e-02,-4.382497072219848633e-02,-6.226256489753723145e-03,-8.775743655860424042e-03,-5.795668065547943115e-02,-5.697884410619735718e-02,-2.661973796784877777e-02,-6.797573715448379517e-02,-5.248113721609115601e-02,-5.162328109145164490e-02,-7.733608130365610123e-03,-2.235639095306396484e-02,-2.548735588788986206e-02,-3.867434337735176086e-03,-7.909531123004853725e-04,-8.812688291072845459e-03,-7.483789324760437012e-02,-1.091767102479934692e-01,-1.017543449997901917e-01,-1.087986901402473450e-01,-3.308829292654991150e-02,-7.943573594093322754e-02,-5.785980820655822754e-02,-5.047307163476943970e-02,1.251186709851026535e-02,2.858015010133385658e-03,-1.259845774620771408e-02,-2.062532491981983185e-02,-1.675070449709892273e-02,-8.983447216451168060e-03,-4.934568889439105988e-03,-5.448541045188903809e-02,-5.994265154004096985e-02,-2.437758073210716248e-02,-6.454698741436004639e-02,-1.997384615242481232e-02,-9.540908038616180420e-02,-9.027638286352157593e-02,-9.638535231351852417e-02,4.460110515356063843e-02,7.826306670904159546e-02,1.695964336395263672e-01,2.236818969249725342e-01,1.501021534204483032e-01,2.904136180877685547e-01,1.897635757923126221e-01,6.788234412670135498e-02,1.684514433145523071e-01,1.617359668016433716e-01,-4.356815014034509659e-03,-2.226972021162509918e-02,-1.087701544165611267e-01,-1.515391170978546143e-01,-1.005435064435005188e-01,-5.675743520259857178e-02,-9.206013754010200500e-03,-8.658758550882339478e-02,-6.509601138532161713e-03,-6.081222370266914368e-02,-3.128794953227043152e-02,-5.014713108539581299e-02,-7.120846956968307495e-02,-4.073492810130119324e-02,-5.182533338665962219e-02,-8.599994331598281860e-02,-6.081854552030563354e-02,4.774062335491180420e-02,1.838946714997291565e-02,1.440468281507492065e-01,1.529493778944015503e-01,1.972483396530151367e-01,1.562908142805099487e-01,7.562539726495742798e-02,1.215690001845359802e-01,2.112869620323181152e-01,1.816194653511047363e-01,2.473397105932235718e-01,1.047618687152862549e-01,4.419178236275911331e-03,-2.969772368669509888e-02,-1.693448275327682495e-01,-8.989901840686798096e-02,-3.670321032404899597e-02,-5.958647280931472778e-02,-1.717943884432315826e-02,-1.735728047788143158e-02,1.269703148864209652e-03,-3.470744565129280090e-02,-2.459404058754444122e-02,-2.284635975956916809e-02,-5.900380760431289673e-02,-1.148595660924911499e-01,-2.055561989545822144e-01,1.921992661664262414e-04,7.808044552803039551e-03,-1.237021666020154953e-02,-1.857317239046096802e-02,4.624891653656959534e-02,4.050106555223464966e-02,4.855304490774869919e-03,6.739974766969680786e-02,1.092122048139572144e-01,9.003188461065292358e-03,1.673206537961959839e-01,3.096347451210021973e-01,2.440055161714553833e-01,1.444949358701705933e-01,1.364807486534118652e-01,4.981695488095283508e-02,-7.337982207536697388e-02,-1.111477240920066833e-01,-8.711701631546020508e-02,-9.105926379561424255e-03,-1.942435652017593384e-02,7.584406528621912003e-03,-4.412304610013961792e-02,-2.502329833805561066e-02,-3.353400854393839836e-03,-1.220925897359848022e-01,-1.832572668790817261e-01,-1.236752197146415710e-01,-1.085372492671012878e-01,-1.589945554733276367e-01,-2.015760242938995361e-01,-1.671654880046844482e-01,-1.515944115817546844e-02,-3.702409192919731140e-02,-4.772616922855377197e-02,8.783429861068725586e-02,2.750591933727264404e-02,1.305992603302001953e-01,1.047677695751190186e-01,1.039397567510604858e-01,1.453073322772979736e-01,1.217443570494651794e-01,1.075556408613920212e-02,-1.463538408279418945e-02,1.072130049578845501e-03,-1.425624787807464600e-01,-1.696664392948150635e-01,-1.230367124080657959e-01,-6.842805445194244385e-02,-6.005249917507171631e-03,-3.766541555523872375e-02,-9.373978711664676666e-03,-5.835106596350669861e-02,-1.299529522657394409e-01,-1.738415807485580444e-01,-9.955342859029769897e-02,-1.181705147027969360e-01,-1.440806984901428223e-01,-2.094230055809020996e-01,-2.348399907350540161e-02,-5.849736928939819336e-02,3.504024446010589600e-02,-3.475125133991241455e-02,6.342838704586029053e-02,4.572277516126632690e-02,1.059378907084465027e-01,1.354668587446212769e-01,2.365657389163970947e-01,2.147347331047058105e-01,9.986452758312225342e-02,-2.301079779863357544e-02,2.433973923325538635e-02,8.024983108043670654e-02,-1.588637195527553558e-02,-2.556687220931053162e-02,-9.408719092607498169e-02,-3.805098310112953186e-02,-1.158120576292276382e-02,-5.941757187247276306e-02,-2.913049980998039246e-02,-6.824417412281036377e-02,-8.950639516115188599e-02,-1.007113829255104065e-01,-2.702534794807434082e-01,-1.252437084913253784e-01,-9.285823255777359009e-02,-3.006078861653804779e-02,9.464704245328903198e-02,5.749108269810676575e-02,7.492831908166408539e-03,8.416476659476757050e-03,-1.408440247178077698e-02,-8.298190310597419739e-03,7.708197832107543945e-02,2.649869620800018311e-01,2.863683700561523438e-01,1.886514723300933838e-01,1.909975707530975342e-01,1.203505620360374451e-01,1.175389513373374939e-01,7.582336664199829102e-02,5.921669676899909973e-02,-6.496082991361618042e-02,-1.608821153640747070e-01,-7.192412018775939941e-02,-1.697759702801704407e-02,-5.076241493225097656e-02,-2.085017599165439606e-02,-4.144239425659179688e-02,-1.331656053662300110e-02,-1.809143088757991791e-02,-2.275575846433639526e-01,-9.033665806055068970e-02,-1.144013255834579468e-01,-2.724381349980831146e-02,-1.208735629916191101e-02,2.528546005487442017e-02,-2.096803672611713409e-02,-3.648803010582923889e-02,6.295077502727508545e-02,6.616447120904922485e-02,-7.277515530586242676e-02,7.438442856073379517e-02,8.365266025066375732e-02,1.279494166374206543e-01,2.147426903247833252e-01,2.168220430612564087e-01,8.842430263757705688e-02,-5.480133369565010071e-02,5.207638069987297058e-02,-5.978354066610336304e-02,-2.118260413408279419e-01,-1.121180057525634766e-01,-8.659770339727401733e-02,-3.273126482963562012e-02,-8.797030895948410034e-02,-6.322743743658065796e-02,-8.443664759397506714e-02,3.578052669763565063e-02,-3.280336037278175354e-02,-2.873725444078445435e-02,-1.167764365673065186e-01,-1.663257330656051636e-01,-6.743017584085464478e-02,-1.040916591882705688e-01,1.034150700434111059e-04,-6.171849370002746582e-02,4.375109449028968811e-03,1.156580746173858643e-01,-4.397549107670783997e-02,-9.193064179271459579e-04,1.096514146775007248e-02,4.396367352455854416e-03,9.287661314010620117e-02,1.491567492485046387e-01,7.902757078409194946e-02,1.662791669368743896e-01,1.049199178814888000e-01,-1.234112307429313660e-01,-1.860851496458053589e-01,-1.110697463154792786e-01,-6.712045520544052124e-02,-6.354216486215591431e-02,-5.752394720911979675e-02,-8.120074868202209473e-02,-5.162558332085609436e-02,-4.077840596437454224e-02,-8.642984181642532349e-02,3.517900034785270691e-02,-1.168376058340072632e-01,-5.154900625348091125e-02,-2.518827794119715691e-03,-7.908352464437484741e-02,-2.973844669759273529e-02,-1.144491061568260193e-01,1.870123744010925293e-01,1.185310482978820801e-01,-9.586285799741744995e-02,-2.111171633005142212e-01,-2.503278851509094238e-01,-1.956905126571655273e-01,9.373753517866134644e-02,-8.660064078867435455e-03,2.013127505779266357e-01,3.622859343886375427e-02,7.845571637153625488e-02,7.377565652132034302e-02,-8.037221431732177734e-02,-1.248122304677963257e-01,-7.643792778253555298e-02,-2.465109899640083313e-02,-7.887292653322219849e-02,-1.140505224466323853e-01,3.665420785546302795e-02,-1.474755108356475830e-01,-5.693511292338371277e-02,2.250289916992187500e-02,-6.918560713529586792e-02,-6.944508105516433716e-02,6.419747322797775269e-02,4.640677198767662048e-02,4.982253164052963257e-02,8.995775878429412842e-02,2.852342724800109863e-01,5.312383919954299927e-02,-1.903328001499176025e-01,-3.063000142574310303e-01,-2.134038209915161133e-01,-1.758694648742675781e-01,9.593416005373001099e-03,2.601487096399068832e-03,8.747389912605285645e-02,6.561285257339477539e-02,2.844167128205299377e-02,2.559942007064819336e-01,-3.085421770811080933e-02,-6.581310927867889404e-02,-6.440243870019912720e-02,-2.904037944972515106e-02,-5.384211242198944092e-02,-8.452813327312469482e-02,4.669155925512313843e-02,-8.595802355557680130e-04,3.951251506805419922e-02,1.069971472024917603e-01,4.142127931118011475e-02,2.292016334831714630e-02,3.688500821590423584e-02,1.170015931129455566e-01,1.398063600063323975e-01,1.536232382059097290e-01,5.782769992947578430e-02,5.835477635264396667e-02,-1.101903319358825684e-01,-3.319360017776489258e-01,-2.431444227695465088e-01,-1.317007839679718018e-01,-3.317008912563323975e-02,-2.545885927975177765e-02,1.488890778273344040e-02,4.795591160655021667e-02,1.252260059118270874e-01,1.739535331726074219e-01,-3.300848603248596191e-02,-2.141210425179451704e-04,-3.137146309018135071e-02,-5.802079662680625916e-02,-4.913142323493957520e-02,-6.405821442604064941e-02,-3.315278794616460800e-03,-1.811297982931137085e-02,2.022218257188796997e-01,1.025270968675613403e-01,1.870444566011428833e-01,1.144342869520187378e-01,1.479261368513107300e-01,1.234817057847976685e-01,1.509687155485153198e-01,9.228762984275817871e-02,-5.169791728258132935e-02,-1.032084375619888306e-01,-1.950300335884094238e-01,-2.350051552057266235e-01,-1.779790222644805908e-01,-5.362885072827339172e-02,-1.357644945383071899e-01,1.236236318945884705e-01,1.366003304719924927e-01,2.704396471381187439e-02,2.647932805120944977e-02,1.365551799535751343e-01,1.053591817617416382e-02,-1.755439862608909607e-02,-4.170341789722442627e-02,-3.690450638532638550e-02,-3.970300033688545227e-02,-7.453313469886779785e-02,-4.380229860544204712e-02,2.246394194662570953e-02,2.162475585937500000e-01,4.168395325541496277e-02,1.347235441207885742e-01,1.102353334426879883e-01,1.892312318086624146e-01,1.531853824853897095e-01,4.048421606421470642e-02,1.013261154294013977e-01,-9.916489571332931519e-02,-2.054028958082199097e-01,-1.823566257953643799e-01,-1.206318214535713196e-01,-7.326448708772659302e-02,-8.197746239602565765e-03,8.563089184463024139e-03,8.076396584510803223e-02,-6.362586282193660736e-03,-1.925810799002647400e-02,1.137066036462783813e-01,1.421575993299484253e-01,-4.502642154693603516e-02,-1.334213651716709137e-02,4.162701370660215616e-04,-2.408534521237015724e-03,-5.720905214548110962e-02,-5.789693817496299744e-02,1.643073186278343201e-02,-7.810215465724468231e-04,1.281095594167709351e-01,2.314691804349422455e-02,1.206516325473785400e-01,1.397857666015625000e-01,1.752329468727111816e-01,1.130406558513641357e-01,7.223313301801681519e-02,-2.638503350317478180e-02,-8.515808731317520142e-02,-1.886031478643417358e-01,-9.335548430681228638e-02,-2.302286587655544281e-02,5.523391067981719971e-02,-2.253082580864429474e-03,3.867086023092269897e-02,3.297152742743492126e-02,5.318074300885200500e-02,2.958979457616806030e-02,-5.572983622550964355e-02,3.054114931728690863e-04,2.306219656020402908e-03,2.630475163459777832e-02,-5.003119260072708130e-02,-6.644540280103683472e-02,-5.891939252614974976e-02,-4.064181819558143616e-02,-8.154951035976409912e-02,2.774832211434841156e-02,7.579376548528671265e-02,1.668471246957778931e-01,1.479390859603881836e-01,1.352511644363403320e-01,2.189885228872299194e-01,5.569951981306076050e-02,-2.893407642841339111e-02,-1.410789191722869873e-01,-1.583474129438400269e-01,-2.042889297008514404e-01,-1.679161638021469116e-01,2.660593204200267792e-02,1.193912792950868607e-02,-1.364609450101852417e-01,-4.642089456319808960e-02,-2.385185658931732178e-02,-1.543459668755531311e-02,2.088757231831550598e-02,-3.572872653603553772e-02,-7.117140293121337891e-02,4.541308060288429260e-02,-2.692431211471557617e-02,-4.574242979288101196e-03,-4.468700662255287170e-02,-5.112637951970100403e-02,-5.710176378488540649e-02,-1.206786110997200012e-01,1.120998114347457886e-01,9.449622780084609985e-02,1.001417785882949829e-01,1.761034280061721802e-01,1.325340867042541504e-01,2.075709104537963867e-01,-4.764446616172790527e-02,-2.645667493343353271e-01,-2.758081853389739990e-01,-2.851182520389556885e-01,-1.862129271030426025e-01,-8.892494440078735352e-02,7.660068571567535400e-02,5.407230928540229797e-02,-5.466890521347522736e-03,5.825319513678550720e-02,-3.846714645624160767e-02,7.478348910808563232e-02,9.613492339849472046e-02,8.660098165273666382e-02,-1.403211522847414017e-02,-1.449787802994251251e-02,-5.770583823323249817e-02,-7.106563448905944824e-02,-3.201051428914070129e-02,-6.532769650220870972e-02,-4.323130473494529724e-02,-9.237368404865264893e-02,8.301866799592971802e-02,9.386603534221649170e-02,1.740673780441284180e-01,1.531292498111724854e-01,3.313019499182701111e-02,7.395798712968826294e-02,-6.435915827751159668e-02,-2.161130905151367188e-01,-1.920583993196487427e-01,-1.100700423121452332e-01,-1.098708435893058777e-01,-6.751986593008041382e-02,2.521889656782150269e-02,1.221729218959808350e-01,1.235097646713256836e-01,5.757591873407363892e-02,1.589314639568328857e-01,1.843737214803695679e-01,2.589263319969177246e-01,1.147195100784301758e-01,-1.034838482737541199e-01,-4.581169784069061279e-02,-2.407493628561496735e-02,4.856098967138677835e-04,-2.629202045500278473e-02,-2.022860012948513031e-02,-1.207513734698295593e-02,1.098657026886940002e-01,2.836987674236297607e-01,3.121722936630249023e-01,1.741267591714859009e-01,1.898105144500732422e-01,1.087681949138641357e-01,8.663121610879898071e-02,3.778513893485069275e-02,-1.261240802705287933e-02,1.048392802476882935e-02,-3.257411718368530273e-02,-1.262122392654418945e-01,3.915590047836303711e-02,7.815065234899520874e-02,1.643479168415069580e-01,1.565215736627578735e-01,1.749983131885528564e-01,1.505809724330902100e-01,2.033554166555404663e-01,2.015297859907150269e-01,5.834868643432855606e-03,-1.029215157032012939e-01,-6.826163083314895630e-02,-4.553065076470375061e-02,-3.027897328138351440e-02,-3.240146115422248840e-02,-5.106889829039573669e-02,6.201075762510299683e-02,1.449662446975708008e-01,1.740433126688003540e-01,1.890124827623367310e-01,1.597407460212707520e-01,1.434415578842163086e-01,4.200511053204536438e-02,7.705105096101760864e-02,7.719257846474647522e-04,6.960348039865493774e-02,-1.511518377810716629e-02,3.529133647680282593e-02,6.597325950860977173e-02,5.357551574707031250e-02,1.198384985327720642e-01,2.295289002358913422e-02,3.644737228751182556e-02,7.288048416376113892e-02,1.281291842460632324e-01,1.006114408373832703e-01,2.287393957376480103e-01,1.034545302391052246e-01,-1.001275405287742615e-01,-7.534787058830261230e-02,-3.086376748979091644e-02,-1.748538762331008911e-02,-5.050867795944213867e-02,-3.627199307084083557e-02,3.575091809034347534e-02,7.128161936998367310e-02,-3.899093344807624817e-02,1.114817857742309570e-01,1.776696443557739258e-01,1.309875398874282837e-01,1.696182191371917725e-01,1.797758489847183228e-01,1.062775924801826477e-01,1.186713427305221558e-01,8.130429685115814209e-02,1.410042792558670044e-01,1.198543608188629150e-02,1.430012583732604980e-01,5.425587296485900879e-02,-5.305121187120676041e-03,6.248271558433771133e-03,1.518009901046752930e-01,1.027677059173583984e-01,9.084293246269226074e-02,1.683988273143768311e-01,-7.686151657253503799e-03,-1.259900256991386414e-02,-9.226392954587936401e-02,-4.161164537072181702e-02,-3.800639510154724121e-02,-4.452701658010482788e-02,-2.538909763097763062e-02,2.325449371710419655e-03,4.261871427297592163e-02,-3.890429809689521790e-02,7.490223273634910583e-03,6.295926123857498169e-02,1.127280890941619873e-01,2.807995676994323730e-01,2.490244507789611816e-01,2.250250428915023804e-01,1.799930185079574585e-01,1.272173821926116943e-01,1.333870887756347656e-01,1.577658504247665405e-01,8.315349370241165161e-02,3.113537281751632690e-02,-5.084524303674697876e-02,-2.800475805997848511e-02,-5.467262491583824158e-02,7.477293908596038818e-02,1.779347658157348633e-02,1.492905523627996445e-02,-1.660250499844551086e-02,-5.243644118309020996e-02,-9.528487175703048706e-02,-6.027597561478614807e-02,-3.292791172862052917e-02,-6.551127880811691284e-02,-5.886437743902206421e-02,-1.186847034841775894e-02,-1.385305449366569519e-02,-6.441025435924530029e-02,-2.324801832437515259e-01,-1.061646193265914917e-01,6.761109828948974609e-02,1.839056462049484253e-01,3.155651986598968506e-01,1.392514407634735107e-01,1.495531052350997925e-01,2.296598702669143677e-01,2.027439624071121216e-01,1.276377588510513306e-01,6.183714047074317932e-02,9.908233582973480225e-02,1.318322215229272842e-02,2.888370677828788757e-02,-1.115293875336647034e-01,-1.326773501932621002e-02,2.865260699763894081e-03,-1.552707254886627197e-01,-1.086653694510459900e-01,-1.429494097828865051e-02,5.248309578746557236e-03,-4.618027061223983765e-02,-4.177103936672210693e-02,-3.648395091295242310e-02,-4.914905875921249390e-03,-2.824232913553714752e-03,-3.479503840208053589e-02,-6.404136121273040771e-02,-7.317186892032623291e-02,4.786858335137367249e-02,-6.660003960132598877e-02,-1.068124324083328247e-01,1.132144592702388763e-02,-1.708912290632724762e-02,-1.221260521560907364e-02,-1.107661277055740356e-01,-1.331546716392040253e-02,-1.306073516607284546e-01,1.002722084522247314e-01,-3.642651438713073730e-02,-1.326684206724166870e-01,-1.280555129051208496e-01,1.413435209542512894e-03,-7.248998433351516724e-02,-5.033883452415466309e-02,-7.999655604362487793e-02,-1.171025931835174561e-01,-9.325979650020599365e-02,-4.628796502947807312e-02,-4.328337684273719788e-02,-8.133971132338047028e-03,-4.142409563064575195e-02,-6.591915339231491089e-02,-6.135352700948715210e-02,-3.910180926322937012e-02,1.641356572508811951e-02,3.377637267112731934e-02,7.012365758419036865e-02,-1.228217482566833496e-01,-1.684283614158630371e-01,-1.605065315961837769e-01,-6.309613585472106934e-02,1.861086860299110413e-02,3.605044633150100708e-02,7.341271638870239258e-02,-7.696311455219984055e-03,-5.469857901334762573e-02,-1.093085631728172302e-01,-1.728610545396804810e-01,-1.792034953832626343e-01,-6.904608756303787231e-02,-4.681554436683654785e-02,-3.010784834623336792e-02,-6.059597060084342957e-02,-2.188626304268836975e-02,-5.688351113349199295e-03,-7.126573473215103149e-02,-2.287650294601917267e-02,-3.304062783718109131e-02,-1.816856674849987030e-02,-1.124521438032388687e-02,-9.763681329786777496e-03,-4.640099406242370605e-02,-4.177677258849143982e-02,-3.707754239439964294e-02,-2.005513012409210205e-02,-2.560137771070003510e-02,-3.669244796037673950e-02,-5.151087790727615356e-02,-2.394002303481101990e-02,-7.128282915800809860e-03,-7.357266265898942947e-03,-6.825046986341476440e-02,-8.180971443653106689e-02,-8.346370607614517212e-02,-7.910062372684478760e-02,-5.471035093069076538e-02,-6.839085370302200317e-02,-8.893113583326339722e-02,-1.056439243257045746e-02,-5.289094150066375732e-02,-2.074255608022212982e-02,-5.155414342880249023e-02,-2.664037607610225677e-02,-4.704228043556213379e-02,-2.991800382733345032e-02,-5.518803372979164124e-02
-6.999045610427856445e-02,-5.164783075451850891e-02,-9.666734188795089722e-02,-6.194935366511344910e-02,-7.740963995456695557e-02,-7.008775323629379272e-02,-9.171966463327407837e-02,-6.376092135906219482e-02,-8.487837761640548706e-02,-4.130298271775245667e-02,-7.764970511198043823e-02,-3.125743195414543152e-02,-5.413288623094558716e-02,-2.792232111096382141e-02,-8.038957417011260986e-02,-9.603295475244522095e-02,-5.485152080655097961e-02,-6.268188357353210449e-02,-2.998400293290615082e-02,-4.228721186518669128e-02,-5.186250060796737671e-02,-7.122432440519332886e-02,-7.778224349021911621e-02,-4.020940139889717102e-02,-6.741525977849960327e-02,-9.051793068647384644e-02,-5.874475091695785522e-02,-5.589717626571655273e-02,-4.388678073883056641e-02,-3.198172524571418762e-02,-4.759265109896659851e-02,-9.467079490423202515e-02,-5.886526033282279968e-02,-2.735181897878646851e-02,-4.064191132783889771e-02,-4.117319732904434204e-02,-2.513569407165050507e-02,-5.423329398036003113e-02,-5.695024132728576660e-02,-1.930067874491214752e-02,-2.590956352651119232e-02,-7.430978864431381226e-02,-8.944281190633773804e-02,-1.127546280622482300e-01,-1.108288541436195374e-01,-7.367044687271118164e-02,-5.220762640237808228e-02,-5.349077656865119934e-02,-3.649932518601417542e-02,-7.371890544891357422e-02,-8.675313740968704224e-02,-4.848561808466911316e-02,-7.039492577314376831e-02,-7.641426473855972290e-02,-9.513930976390838623e-02,-5.179769545793533325e-02,-8.554129302501678467e-02,-9.501799941062927246e-02,-9.602205455303192139e-02,-3.401485458016395569e-02,-4.420845210552215576e-02,-4.144344106316566467e-02,-2.669833973050117493e-02,-1.930387807078659534e-03,-3.745762258768081665e-02,-2.734437957406044006e-02,4.330718889832496643e-02,1.058483794331550598e-01,1.597484350204467773e-01,8.160514384508132935e-02,1.420435160398483276e-01,8.124924451112747192e-02,3.506326116621494293e-03,7.508068811148405075e-04,8.623836934566497803e-02,1.032873243093490601e-02,6.069184094667434692e-02,3.039693459868431091e-02,6.181673961691558361e-05,-1.467538066208362579e-02,-7.249222695827484131e-02,-1.003609150648117065e-01,-6.761682778596878052e-02,-4.206642135977745056e-02,-4.375393688678741455e-02,-7.235421240329742432e-02,-6.307216733694076538e-02,-3.123511932790279388e-02,-5.847308784723281860e-02,3.924242407083511353e-02,2.325683087110519409e-02,1.092788055539131165e-01,1.934679597616195679e-01,1.975233256816864014e-01,2.952184081077575684e-01,3.399291932582855225e-01,3.030523955821990967e-01,2.727817296981811523e-01,3.783434033393859863e-01,2.756467163562774658e-01,1.427037566900253296e-01,6.743111461400985718e-02,1.010859534144401550e-01,1.708828508853912354e-01,2.119532674551010132e-01,2.036837041378021240e-01,1.161520183086395264e-01,1.007022336125373840e-01,1.876312866806983948e-02,-8.297229558229446411e-02,-1.372803188860416412e-02,-6.358096748590469360e-02,-4.728571325540542603e-02,-3.939567133784294128e-02,-9.248725324869155884e-02,-5.149142071604728699e-02,-2.379642985761165619e-02,1.108900308609008789e-01,8.827570080757141113e-02,2.023495137691497803e-01,2.619115412235260010e-01,3.961042165756225586e-01,4.784465730190277100e-01,3.463044762611389160e-01,3.382167220115661621e-01,2.263496369123458862e-01,1.732413470745086670e-01,7.020942866802215576e-02,8.678250759840011597e-02,9.354032576084136963e-02,4.818131402134895325e-02,6.310517340898513794e-02,5.471618846058845520e-02,5.848955735564231873e-02,1.251471638679504395e-01,5.638630688190460205e-02,6.822919100522994995e-02,4.296256229281425476e-03,-9.058467298746109009e-02,-7.668052613735198975e-02,-2.949774451553821564e-02,-2.701877802610397339e-02,-2.643160149455070496e-02,-9.616386145353317261e-03,9.165500849485397339e-02,4.782892391085624695e-02,1.447388231754302979e-01,2.260742783546447754e-01,8.228069543838500977e-02,1.189336329698562622e-01,1.788633912801742554e-01,1.382387876510620117e-01,1.431660801172256470e-01,8.994124084711074829e-02,1.458466649055480957e-01,2.626307308673858643e-02,5.076585710048675537e-02,1.027526035904884338e-01,7.035339623689651489e-02,1.972193121910095215e-01,2.455433160066604614e-01,7.976134121417999268e-02,-8.919723331928253174e-03,4.472138360142707825e-03,5.925195664167404175e-02,2.519866917282342911e-03,-1.093707531690597534e-01,-6.633289903402328491e-02,-8.730510622262954712e-02,-6.408806145191192627e-02,-7.542852312326431274e-02,-1.197814121842384338e-01,-2.298829145729541779e-02,-6.704287230968475342e-02,-2.393662929534912109e-02,7.093740254640579224e-02,7.502795010805130005e-02,1.533475220203399658e-01,2.864801511168479919e-02,4.009954258799552917e-02,9.599240869283676147e-02,7.966378331184387207e-02,2.868736535310745239e-02,1.081582158803939819e-01,-3.607970895245671272e-03,-8.698911964893341064e-02,-1.386085003614425659e-01,-8.751777559518814087e-02,-4.505858197808265686e-02,-7.339269667863845825e-02,-1.382653834298253059e-03,3.363073617219924927e-02,4.682994447648525238e-03,4.787096008658409119e-02,-7.868780940771102905e-02,-9.242236614227294922e-03,-8.967249840497970581e-02,-2.850069850683212280e-02,-1.401818245649337769e-01,-2.023188173770904541e-01,8.659953624010086060e-02,2.134100645780563354e-01,4.964313484379090369e-05,4.688093066215515137e-02,1.414475291967391968e-01,1.889826543629169464e-02,-2.166899293661117554e-02,2.838421612977981567e-02,3.398355841636657715e-02,-2.206580527126789093e-02,4.490434750914573669e-02,1.134344786405563354e-01,-8.960435539484024048e-02,-1.483433246612548828e-01,-1.287118494510650635e-01,-1.284594535827636719e-01,-2.230721414089202881e-01,-1.561263799667358398e-01,-7.522985339164733887e-02,-5.363556742668151855e-02,8.716353029012680054e-02,4.260543361306190491e-02,-5.115346238017082214e-02,-7.639920711517333984e-02,-7.536294311285018921e-02,-7.982356846332550049e-02,-1.015929803252220154e-01,-1.431568711996078491e-01,1.077597737312316895e-01,7.974797487258911133e-02,4.302381351590156555e-02,2.337740547955036163e-02,-6.784018129110336304e-02,-4.141216725111007690e-02,-1.882493868470191956e-02,-7.922752946615219116e-02,8.027332834899425507e-03,1.023167073726654053e-01,-4.537065047770738602e-03,-7.764569669961929321e-02,-1.207382827997207642e-01,-1.825581938028335571e-01,-1.082949563860893250e-01,-9.830576926469802856e-02,-1.376333236694335938e-01,-9.474743157625198364e-02,-3.020251542329788208e-02,-1.534983366727828979e-01,-4.679220914840698242e-02,-2.993259578943252563e-03,-7.767899334430694580e-02,-6.416075676679611206e-02,-7.282944023609161377e-02,-9.985503554344177246e-02,-1.026792675256729126e-01,-1.023968458175659180e-01,2.568154409527778625e-02,7.505150139331817627e-02,3.771322593092918396e-02,7.963448017835617065e-02,3.251920267939567566e-02,-5.861566215753555298e-02,-7.104951143264770508e-02,-1.677684485912322998e-01,-1.848283410072326660e-01,-1.250333487987518311e-01,-5.519729852676391602e-02,-1.249517425894737244e-01,-1.110283210873603821e-01,-2.365906983613967896e-01,-1.961407959461212158e-01,-7.352948933839797974e-02,-2.543321251869201660e-02,-2.761715836822986603e-02,6.132045295089483261e-03,-3.106426633894443512e-02,-1.785937696695327759e-01,-3.505495190620422363e-02,-3.701346740126609802e-02,-7.934334129095077515e-02,-3.400155156850814819e-02,-1.227221786975860596e-01,-1.086208373308181763e-01,-3.373818472027778625e-02,-9.623059630393981934e-02,-1.070384010672569275e-01,-4.397227894514799118e-03,5.059527233242988586e-03,4.515410866588354111e-03,-1.241833940148353577e-01,-2.001980543136596680e-01,-2.034000456333160400e-01,-1.762880384922027588e-01,-1.158098801970481873e-01,-1.147122681140899658e-01,-3.104574084281921387e-01,-2.467144727706909180e-01,-7.691577076911926270e-02,4.294868558645248413e-02,-5.314141977578401566e-03,-5.137712135910987854e-02,-1.614565253257751465e-01,1.313558896072208881e-03,1.262251436710357666e-01,-4.968621581792831421e-02,-1.723908185958862305e-01,-5.871537700295448303e-02,-6.252086162567138672e-02,-2.918039821088314056e-02,-7.160525023937225342e-02,-2.179696261882781982e-01,-1.217366531491279602e-01,-7.416734844446182251e-02,-5.103018879890441895e-02,-7.340482622385025024e-02,-1.283877193927764893e-01,-2.234133705496788025e-02,-3.196584060788154602e-02,-8.214205503463745117e-02,-6.416545808315277100e-02,1.324755996465682983e-01,8.266563713550567627e-02,7.174574583768844604e-02,-1.092268452048301697e-01,-2.640401199460029602e-02,6.569608300924301147e-02,8.019617199897766113e-02,6.686798483133316040e-02,-1.412930991500616074e-02,-1.587469875812530518e-01,-1.283276081085205078e-01,2.511991374194622040e-02,7.494342047721147537e-03,-9.205301105976104736e-02,-2.957152016460895538e-02,-8.022417873144149780e-02,-5.898312851786613464e-02,-9.739233553409576416e-02,-1.708307713270187378e-01,-2.424616217613220215e-01,-1.957540214061737061e-01,-1.028535142540931702e-01,-7.920728623867034912e-02,-2.278980053961277008e-02,-8.259065449237823486e-02,1.096615344285964966e-01,1.119751334190368652e-01,2.094624787569046021e-01,3.176847100257873535e-01,3.911099135875701904e-01,2.157287150621414185e-01,5.409567430615425110e-02,4.749225452542304993e-02,1.046919822692871094e-01,6.555604934692382812e-02,6.469783931970596313e-02,4.452794417738914490e-02,1.244171638973057270e-03,-6.691402941942214966e-02,2.392611801624298096e-01,8.090263605117797852e-02,-1.500106602907180786e-01,-1.514647156000137329e-01,-9.561686962842941284e-02,-8.613302558660507202e-02,-8.969160169363021851e-02,-1.503682434558868408e-01,-2.044695168733596802e-01,-2.123697549104690552e-01,-2.081176452338695526e-02,-1.646576821804046631e-02,6.699883192777633667e-02,1.252001374959945679e-01,2.106653302907943726e-01,1.216744258999824524e-01,1.667233109474182129e-01,3.206800222396850586e-01,3.398272991180419922e-01,1.423943191766738892e-01,2.317525446414947510e-01,2.063504606485366821e-01,1.296833753585815430e-01,2.039809077978134155e-01,1.869713515043258667e-01,5.515877157449722290e-02,-2.180104702711105347e-02,3.734828904271125793e-02,2.005772739648818970e-01,-9.429163485765457153e-02,-1.832279711961746216e-01,-1.760776489973068237e-01,-1.140086501836776733e-01,-9.357895702123641968e-02,-3.910763561725616455e-02,-1.115725934505462646e-01,-1.646132767200469971e-01,-1.701975762844085693e-01,-4.566143453121185303e-02,3.954385593533515930e-02,9.367161989212036133e-02,1.104266792535781860e-01,9.263547509908676147e-02,4.075747355818748474e-02,2.049183994531631470e-01,1.860005855560302734e-01,2.534291148185729980e-01,1.836729943752288818e-01,1.130924895405769348e-01,1.427960991859436035e-01,1.398485004901885986e-01,7.913172990083694458e-02,-4.129748418927192688e-02,-9.746409207582473755e-02,-6.796943955123424530e-03,-2.860753051936626434e-02,-1.289657056331634521e-01,-2.237002402544021606e-01,-7.564726471900939941e-02,-1.263346523046493530e-01,-7.440173625946044922e-02,-3.751832619309425354e-02,-6.104022637009620667e-02,-7.654021680355072021e-02,-7.936592400074005127e-02,-1.213945299386978149e-01,-9.793011099100112915e-02,4.583208262920379639e-02,4.861194267868995667e-02,3.586802259087562561e-02,1.690763421356678009e-02,-2.868826128542423248e-02,1.136168986558914185e-01,1.652561128139495850e-01,2.435405552387237549e-01,3.076860904693603516e-01,1.011455208063125610e-01,1.371571570634841919e-01,6.539753824472427368e-02,-1.181836575269699097e-01,3.529643639922142029e-02,8.376099285669624805e-04,4.825613275170326233e-02,1.290767490863800049e-01,1.071919687092304230e-02,-9.058453142642974854e-02,-4.204240813851356506e-02,-9.289965033531188965e-02,-6.102967634797096252e-02,-4.950916394591331482e-02,-5.115702375769615173e-02,-3.390580043196678162e-02,1.855012401938438416e-02,2.036151103675365448e-02,-9.676776081323623657e-02,-6.521106511354446411e-02,-7.261590659618377686e-02,-9.021180123090744019e-02,2.616276498883962631e-03,-3.669283539056777954e-02,1.311031579971313477e-01,6.862094998359680176e-02,1.585319191217422485e-01,1.422408819198608398e-01,2.282522246241569519e-02,-1.441050972789525986e-02,-9.455399215221405029e-02,3.708530589938163757e-02,3.239938616752624512e-02,2.705216035246849060e-02,6.324487924575805664e-02,1.922701597213745117e-01,1.525264829397201538e-01,5.191698670387268066e-02,-2.853243798017501831e-02,-1.440071016550064087e-01,-7.050669938325881958e-02,-6.294523924589157104e-02,-7.048023492097854614e-02,1.200249046087265015e-02,5.546018853783607483e-02,1.026075109839439392e-01,-4.087316989898681641e-02,-1.354607045650482178e-01,3.024456789717078209e-03,1.898274570703506470e-02,-5.820447206497192383e-02,-4.640206322073936462e-02,-2.112847194075584412e-02,-6.891313940286636353e-02,-2.179321460425853729e-02,-3.172877430915832520e-02,-6.976304203271865845e-02,-9.181238710880279541e-02,-6.957720965147018433e-02,2.297625876963138580e-02,1.750177741050720215e-01,3.076461143791675568e-02,1.089480668306350708e-01,7.027640193700790405e-02,8.387029170989990234e-02,-1.057622656226158142e-01,-1.426226347684860229e-01,-1.193336620926856995e-01,-1.099832355976104736e-01,-6.485112756490707397e-02,-2.559352852404117584e-02,-1.956482604146003723e-02,1.313503384590148926e-01,-9.291400201618671417e-03,7.834918797016143799e-02,1.347164511680603027e-01,-9.740544110536575317e-02,-6.940907984972000122e-02,-2.714804746210575104e-02,-1.088129878044128418e-01,-5.023391917347908020e-02,-7.837182842195034027e-03,-1.035940870642662048e-01,-7.675006240606307983e-02,-2.313756197690963745e-02,8.194852620363235474e-02,6.139594316482543945e-02,5.079567432403564453e-02,1.508135199546813965e-01,9.805648773908615112e-02,6.338585913181304932e-02,2.716718427836894989e-02,1.233163997530937195e-01,-6.686739623546600342e-02,-1.546670645475387573e-01,-8.944074809551239014e-02,-7.604040950536727905e-02,-2.818773873150348663e-02,-8.684900403022766113e-02,-1.034606322646141052e-01,9.649503976106643677e-02,4.147247225046157837e-02,2.009397149085998535e-01,6.029712781310081482e-02,-5.638893321156501770e-02,-8.790536224842071533e-02,-9.247270226478576660e-02,3.649567952379584312e-03,-5.463926494121551514e-02,-1.109109073877334595e-01,-9.192741662263870239e-02,-7.563453167676925659e-03,3.293521329760551453e-02,1.244565844535827637e-01,1.788354814052581787e-01,2.036045938730239868e-01,8.384136110544204712e-02,1.005867049098014832e-01,1.290455609560012817e-01,1.214237809181213379e-01,1.838152706623077393e-01,-1.364584863185882568e-01,-2.376983761787414551e-01,-4.586617276072502136e-02,-5.762108042836189270e-02,-8.977289497852325439e-02,-7.439860701560974121e-02,-6.299532204866409302e-02,8.415524661540985107e-02,5.536770075559616089e-02,5.635300651192665100e-02,9.035445749759674072e-02,2.014577835798263550e-01,2.985387342050671577e-03,9.758596122264862061e-02,7.357215881347656250e-02,-1.013305187225341797e-01,-1.183746755123138428e-01,2.876928448677062988e-02,7.387161254882812500e-02,2.097531110048294067e-01,1.511612832546234131e-01,1.717616468667984009e-01,2.617564201354980469e-01,9.898518025875091553e-02,2.601782381534576416e-01,2.247398495674133301e-01,1.656836271286010742e-01,6.355624645948410034e-02,-2.160689383745193481e-01,-1.668230593204498291e-01,-4.556826874613761902e-02,-9.581408649682998657e-02,-4.230153933167457581e-02,-4.245769977569580078e-02,-3.873405233025550842e-02,7.164850831031799316e-02,2.601809985935688019e-02,-2.641957700252532959e-01,-4.618814680725336075e-03,4.463417455554008484e-02,7.726611196994781494e-02,7.663371413946151733e-02,-6.306034978479146957e-03,1.160017028450965881e-01,2.996468171477317810e-02,1.303764134645462036e-01,1.042324826121330261e-01,1.779910176992416382e-01,1.025072932243347168e-01,1.587824374437332153e-01,1.006679832935333252e-01,1.505091041326522827e-01,1.193065568804740906e-01,2.811370883136987686e-03,9.257156401872634888e-02,-4.344137012958526611e-02,-2.687114775180816650e-01,-1.824893355369567871e-01,-8.297748863697052002e-02,-8.918891102075576782e-02,-5.838265269994735718e-02,-5.560095980763435364e-02,-6.531908363103866577e-02,9.655877947807312012e-03,3.079052083194255829e-02,-2.646129131317138672e-01,-1.557076126337051392e-01,-9.991327673196792603e-02,-1.160483732819557190e-01,-8.382166177034378052e-02,7.725322246551513672e-02,2.002397626638412476e-01,8.962851762771606445e-02,5.677292495965957642e-02,1.278283260762691498e-02,1.001188904047012329e-01,1.091996282339096069e-01,1.166887208819389343e-01,7.880761474370956421e-02,1.253883242607116699e-01,1.289472579956054688e-01,1.415339112281799316e-01,-2.740578725934028625e-02,-8.976038545370101929e-02,-1.663209497928619385e-01,-1.147892698645591736e-01,-7.747910916805267334e-02,-8.306255191564559937e-02,-4.002261906862258911e-02,-8.971264958381652832e-02,-2.683949097990989685e-02,9.798587858676910400e-02,1.201801002025604248e-01,-2.710263244807720184e-02,-1.603612005710601807e-01,-2.160994149744510651e-02,7.368231564760208130e-02,-5.093476176261901855e-02,5.450143944472074509e-03,4.180102050304412842e-02,1.465657446533441544e-02,1.234690919518470764e-01,2.040283381938934326e-01,1.695231497287750244e-01,1.583673655986785889e-01,8.010804653167724609e-02,2.477191835641860962e-01,1.993938684463500977e-01,1.892065852880477905e-01,8.444255590438842773e-02,2.249817550182342529e-02,3.380473330616950989e-02,-1.296480298042297363e-01,-7.462064921855926514e-02,-3.900353610515594482e-02,-5.746975913643836975e-02,-3.952201455831527710e-02,-5.033747106790542603e-02,-6.009190529584884644e-02,4.414491355419158936e-02,1.709605157375335693e-01,-3.066239133477210999e-02,9.211126714944839478e-03,9.773422777652740479e-02,7.370229810476303101e-02,9.242490679025650024e-02,2.407204657793045044e-01,1.165153607726097107e-01,1.102771833539009094e-01,1.939025372266769409e-01,1.831967681646347046e-01,8.940073847770690918e-02,2.165517359972000122e-01,-4.887266084551811218e-02,2.315779775381088257e-02,1.936617307364940643e-02,5.687699094414710999e-02,-2.100816182792186737e-02,3.584981709718704224e-02,2.690557762980461121e-02,-1.009680703282356262e-01,-8.132916688919067383e-02,-5.682620778679847717e-02,-5.903185158967971802e-02,-9.366784989833831787e-02,-8.351110666990280151e-02,-3.114666603505611420e-02,-9.719903767108917236e-02,5.855763331055641174e-03,-8.490000618621706963e-04,9.238266199827194214e-02,8.882524073123931885e-02,8.366223424673080444e-02,5.490576475858688354e-02,1.636544167995452881e-01,-7.084713783115148544e-03,4.085346311330795288e-02,9.034723043441772461e-02,-3.981463611125946045e-03,-2.505045942962169647e-02,2.278926968574523926e-02,-2.588032046332955360e-03,-2.551623620092868805e-02,-5.833523813635110855e-03,-3.313811495900154114e-02,-7.693374902009963989e-02,-3.389982879161834717e-02,-1.139995604753494263e-01,-5.163657292723655701e-02,-5.768244341015815735e-02,-8.328627049922943115e-02,-8.290756493806838989e-02,-2.552749030292034149e-02,-5.591832846403121948e-02,-7.518269121646881104e-02,-5.142187327146530151e-02,-5.917811766266822815e-02,-9.634125046432018280e-03,-4.639351740479469299e-02,-3.763532266020774841e-02,-7.697582989931106567e-02,-3.548810631036758423e-02,1.230284571647644043e-02,-2.276833169162273407e-03,-9.317821823060512543e-03,-8.658406883478164673e-02,-7.062596082687377930e-02,-9.763813018798828125e-02,-8.208397030830383301e-02,-3.274815902113914490e-02,-1.220136210322380066e-01,-2.298161238431930542e-01,-1.049456596374511719e-01,-6.453721970319747925e-02,-1.106891259551048279e-01,-4.180018231272697449e-02,-8.562199771404266357e-02,-8.844551444053649902e-02,-7.623640447854995728e-02,-3.899673745036125183e-02,-4.315235838294029236e-02,-6.563395261764526367e-02,-5.163236334919929504e-02,-5.476696416735649109e-02,-7.609913498163223267e-02,-5.010061711072921753e-02,-9.486524015665054321e-02,-9.607552736997604370e-02,-1.003760471940040588e-01,-6.023542582988739014e-02,-9.224534779787063599e-02,-7.820376753807067871e-02,-6.395715475082397461e-02,-9.301201254129409790e-02,-1.202090531587600708e-01,-5.633889883756637573e-02,-6.742890924215316772e-02,-1.306672543287277222e-01,-1.211792603135108948e-01,-7.787411659955978394e-02,-5.052272230386734009e-02,-7.722013443708419800e-02,-1.113487705588340759e-01,-4.573560506105422974e-02,-4.467535018920898438e-02,-8.364710211753845215e-02,-2.909100987017154694e-02,-8.311522752046585083e-02
-8.285070210695266724e-02,-2.654958702623844147e-02,-5.720459669828414917e-02,-6.344595551490783691e-02,-7.082371413707733154e-02,-2.530773542821407318e-02,-9.324662387371063232e-02,-7.287157326936721802e-02,-7.237146794795989990e-02,-8.306699991226196289e-02,-3.750543296337127686e-02,-5.409563332796096802e-02,-9.072132408618927002e-02,-8.469548076391220093e-02,-7.413969188928604126e-02,-5.100861936807632446e-02,-8.310927450656890869e-02,-5.725755542516708374e-02,-2.755899168550968170e-02,-7.461372017860412598e-02,-6.494243443012237549e-02,-8.437629044055938721e-02,-7.131724804639816284e-02,-7.897583395242691040e-02,-9.182189404964447021e-02,-3.276137262582778931e-02,-4.508093744516372681e-02,-8.224829286336898804e-02,-7.884433120489120483e-02,-7.653740048408508301e-02,-5.554291978478431702e-02,-2.638348564505577087e-02,-9.028611332178115845e-02,-5.656545609235763550e-02,-3.578297793865203857e-02,-6.586773693561553955e-02,-6.456137448549270630e-02,-7.400819659233093262e-02,-7.345990836620330811e-02,-1.067300066351890564e-01,-1.282713115215301514e-01,-1.103295832872390747e-01,-6.501399725675582886e-02,-2.595702558755874634e-02,-6.164676696062088013e-02,-7.340556383132934570e-02,-8.598812669515609741e-02,-8.753423392772674561e-02,-5.730170011520385742e-02,-5.866637825965881348e-02,-6.965516507625579834e-02,-4.287779331207275391e-02,-6.083888560533523560e-02,-4.332198202610015869e-02,-8.930120617151260376e-02,-5.219602957367897034e-02,-8.657706528902053833e-02,-3.440050035715103149e-02,-8.426435291767120361e-02,-4.967024922370910645e-02,-4.376304522156715393e-02,-4.677937179803848267e-02,-8.721307665109634399e-02,-6.535521149635314941e-02,-7.851710915565490723e-02,-1.598328799009323120e-01,-1.652687191963195801e-01,-1.926169991493225098e-01,-1.721089333295822144e-01,-1.344375014305114746e-01,-1.749052405357360840e-01,-1.393496543169021606e-01,-1.124832406640052795e-01,-1.124692037701606750e-01,-1.365085393190383911e-01,-1.954424232244491577e-01,-1.096313223242759705e-01,-1.829436719417572021e-01,-1.442880183458328247e-01,-8.987106382846832275e-02,-4.345926269888877869e-02,-9.764722548425197601e-03,-9.064682573080062866e-02,-7.598710805177688599e-02,-8.544673770666122437e-02,-3.225059062242507935e-02,-7.553958147764205933e-02,-3.863891959190368652e-02,-6.181682646274566650e-02,-2.405859157443046570e-02,-4.713224992156028748e-02,-5.162474513053894043e-02,-1.796910464763641357e-01,-1.242309808731079102e-01,-1.279172003269195557e-01,-1.021322086453437805e-01,-2.298116870224475861e-02,-1.899686008691787720e-01,-2.967436313629150391e-01,-1.307953149080276489e-01,-1.097487136721611023e-01,-8.441813290119171143e-02,-7.246965914964675903e-02,-1.488232016563415527e-01,-2.213858440518379211e-02,-1.017796695232391357e-01,-1.236989870667457581e-01,-1.363676339387893677e-01,-9.117179363965988159e-02,1.212914008647203445e-02,-4.491809010505676270e-02,-7.705257087945938110e-02,-8.190001547336578369e-02,-8.716639876365661621e-02,-7.721935957670211792e-02,-7.703591138124465942e-02,-4.581173509359359741e-02,-5.894768983125686646e-02,-9.855070151388645172e-03,-3.596466779708862305e-02,-6.372705847024917603e-02,-4.250045865774154663e-02,6.525769084692001343e-02,6.061791628599166870e-02,1.646615713834762573e-01,3.950209915637969971e-02,9.912455081939697266e-02,3.253685310482978821e-02,7.806290686130523682e-02,1.520211994647979736e-02,2.328293025493621826e-02,-1.459735329262912273e-03,-3.884587436914443970e-02,-4.146881774067878723e-02,-1.419527083635330200e-01,-2.297737002372741699e-01,1.440835464745759964e-02,1.053267158567905426e-02,-9.425945580005645752e-03,-5.578293278813362122e-02,-7.048918306827545166e-02,-7.161562144756317139e-02,-6.564749032258987427e-02,2.419630251824855804e-02,4.392386972904205322e-02,1.026583183556795120e-02,-1.786342822015285492e-02,2.770065888762474060e-02,-1.384262740612030029e-01,-9.480699151754379272e-02,-1.614740863442420959e-02,8.261117339134216309e-02,9.724072366952896118e-02,-4.129848629236221313e-02,-6.824088841676712036e-02,9.637298062443733215e-03,8.575592935085296631e-02,4.628338851034641266e-03,-6.123930588364601135e-02,-7.510559167712926865e-03,7.278098911046981812e-02,1.106594055891036987e-01,1.513514518737792969e-01,-1.047429069876670837e-02,-4.446465149521827698e-02,-1.071715541183948517e-02,-4.950531199574470520e-02,-5.441136658191680908e-02,-7.171917706727981567e-02,-4.848757013678550720e-02,-8.847153186798095703e-02,-3.678833320736885071e-02,-4.142608493566513062e-02,-1.932934522628784180e-01,-7.442167401313781738e-02,6.061264872550964355e-02,4.413564875721931458e-02,1.915154159069061279e-01,5.647056177258491516e-02,-2.797129936516284943e-02,-5.776007845997810364e-02,-1.146607175469398499e-01,-4.219573736190795898e-02,4.156903363764286041e-03,6.725572049617767334e-02,4.753667861223220825e-02,3.465393558144569397e-02,7.096967846155166626e-02,6.662072241306304932e-02,-5.553216859698295593e-02,-5.505585297942161560e-02,2.028313875198364258e-01,1.265313923358917236e-01,-1.624209806323051453e-02,-1.664922386407852173e-02,-8.300141990184783936e-02,-6.199320778250694275e-02,-7.319638133049011230e-02,-1.010296717286109924e-01,-1.144186779856681824e-01,4.618102684617042542e-03,8.592270314693450928e-02,-3.492198511958122253e-02,-8.663024008274078369e-02,1.318195164203643799e-01,-6.389174610376358032e-02,-7.905909419059753418e-02,-9.189112484455108643e-02,-1.182654052972793579e-01,-8.531236648559570312e-02,6.313107907772064209e-02,5.175261944532394409e-02,4.565621167421340942e-02,-4.592009261250495911e-02,-6.695085018873214722e-02,1.655107922852039337e-02,-7.588000036776065826e-03,-1.735631376504898071e-02,8.810536563396453857e-02,1.081690415740013123e-01,-4.507059976458549500e-02,2.972269803285598755e-02,-4.014735668897628784e-02,-9.316985309123992920e-02,-5.106559023261070251e-02,-8.348976075649261475e-02,-1.019117236137390137e-01,-7.319455593824386597e-02,3.824890032410621643e-02,8.027531206607818604e-02,-2.787716314196586609e-02,-3.373009711503982544e-02,-1.007099449634552002e-02,-8.425629138946533203e-02,3.339808434247970581e-02,5.210481118410825729e-03,-1.184000074863433838e-01,-3.990283980965614319e-02,-1.376055926084518433e-02,-1.760449446737766266e-02,2.856883220374584198e-02,3.111551888287067413e-02,1.945482566952705383e-02,1.453878432512283325e-01,1.036178693175315857e-02,-5.416648089885711670e-02,3.897120431065559387e-02,5.736373364925384521e-02,1.656366139650344849e-01,1.966780275106430054e-01,9.480044245719909668e-02,-4.678702726960182190e-02,-5.431682989001274109e-02,-5.139030516147613525e-02,-6.433952599763870239e-02,-9.749760478734970093e-02,-3.748011589050292969e-02,9.998330473899841309e-02,-5.305535625666379929e-03,-4.943324252963066101e-03,-3.178862389177083969e-03,3.748805820941925049e-02,1.160922646522521973e-01,9.017144143581390381e-02,-9.589307755231857300e-02,-6.563708186149597168e-02,-7.854409515857696533e-02,1.451234817504882812e-01,2.756438553333282471e-01,1.567751020193099976e-01,1.281026452779769897e-01,2.352684736251831055e-02,-6.663727760314941406e-02,3.520579263567924500e-02,6.424996256828308105e-02,1.093860622495412827e-02,1.181747838854789734e-01,1.888136714696884155e-01,1.217893958091735840e-01,-5.173963680863380432e-02,-3.951098024845123291e-02,-1.058281585574150085e-01,-1.145438402891159058e-01,3.505460685119032860e-03,2.831715345382690430e-02,5.038754642009735107e-02,1.032719612121582031e-01,3.004179708659648895e-02,-1.339842192828655243e-02,-6.543873250484466553e-02,7.375203073024749756e-02,7.077147811651229858e-02,6.253202259540557861e-02,-1.212132275104522705e-01,-4.765352979302406311e-02,1.982908248901367188e-01,2.628495693206787109e-01,1.185676902532577515e-01,5.474878102540969849e-02,1.194905415177345276e-01,-6.099643930792808533e-02,-7.851595431566238403e-02,-3.653406351804733276e-02,-3.784726932644844055e-02,3.905241936445236206e-02,1.516922712326049805e-01,2.141603827476501465e-02,-2.100842818617820740e-02,-7.540519535541534424e-02,-7.707799226045608521e-02,-1.347933858633041382e-01,-2.797741442918777466e-02,1.186803802847862244e-01,1.262237429618835449e-01,2.405008114874362946e-02,-8.016289770603179932e-02,-2.129415422677993774e-02,-2.771432884037494659e-02,-1.109428629279136658e-01,-2.577730268239974976e-02,8.577398955821990967e-02,-7.687792927026748657e-02,1.185988783836364746e-01,2.882335484027862549e-01,2.038312703371047974e-01,5.343971773982048035e-02,7.284014672040939331e-02,1.913845725357532501e-02,-1.881940290331840515e-02,-1.871332228183746338e-01,-1.465739011764526367e-01,-1.747148782014846802e-01,1.781630702316761017e-02,2.566495835781097412e-01,3.625905513763427734e-02,-1.675345189869403839e-02,-8.366438746452331543e-02,-1.061647683382034302e-01,-1.214018985629081726e-01,-4.303506016731262207e-02,5.684944987297058105e-02,9.992853738367557526e-03,-6.360279768705368042e-02,-4.262925311923027039e-02,-6.558303534984588623e-02,-6.107166409492492676e-02,-1.410471741110086441e-02,-5.848490074276924133e-02,9.975679963827133179e-02,1.565496921539306641e-01,2.339774817228317261e-01,2.200048565864562988e-01,8.307776413857936859e-03,-1.131351105868816376e-02,-1.190467271953821182e-02,1.297347694635391235e-01,7.766602188348770142e-02,-5.761417374014854431e-02,-2.996074855327606201e-01,-3.138957619667053223e-01,-2.206932157278060913e-01,6.722611933946609497e-02,7.219448685646057129e-02,-3.322087973356246948e-02,-3.294866159558296204e-02,-6.972745805978775024e-02,-1.234111115336418152e-01,1.739095896482467651e-02,-8.386442065238952637e-02,-9.771183878183364868e-02,-1.560063809156417847e-01,-1.479778159409761429e-02,4.851195961236953735e-02,9.133874438703060150e-03,-1.679553985595703125e-01,2.530653215944766998e-02,1.870836019515991211e-01,3.262639343738555908e-01,2.144548892974853516e-01,1.035877615213394165e-01,3.162679076194763184e-02,3.264863044023513794e-02,1.361461915075778961e-02,7.309083640575408936e-02,1.131314560770988464e-01,-8.758153021335601807e-02,-2.401879280805587769e-01,-2.931444644927978516e-01,-2.911775112152099609e-01,2.481610886752605438e-02,1.051434352993965149e-01,1.669001649133861065e-03,-4.134273529052734375e-02,-6.779272854328155518e-02,-7.239283621311187744e-02,6.629808992147445679e-02,1.017282232642173767e-01,-1.559184491634368896e-01,-5.816775932908058167e-02,-1.393378227949142456e-01,-1.181811839342117310e-01,-7.641015201807022095e-02,-1.758691370487213135e-01,-8.267333358526229858e-02,7.593935728073120117e-02,2.468149065971374512e-01,2.091513872146606445e-01,3.272071108222007751e-02,3.407239913940429688e-02,2.234782278537750244e-02,-7.066888269037008286e-03,-2.365599572658538818e-02,-5.109664797782897949e-02,-1.515612751245498657e-01,-3.170102834701538086e-01,-2.145995050668716431e-01,-1.249383762478828430e-01,-1.835168153047561646e-02,7.132988423109054565e-02,-3.254202380776405334e-02,-5.865431204438209534e-02,-4.868926852941513062e-02,-7.370556145906448364e-02,1.321206092834472656e-01,1.683755964040756226e-01,-4.300667345523834229e-02,-2.327522262930870056e-02,-1.648720055818557739e-01,-1.003254428505897522e-01,-9.622558206319808960e-02,-1.121437251567840576e-01,-4.529262369032949209e-04,1.121706441044807434e-01,3.067976236343383789e-01,2.422922700643539429e-01,2.484688535332679749e-02,9.865470975637435913e-02,-9.517509490251541138e-03,-9.048672765493392944e-02,-2.172574773430824280e-02,-1.587345749139785767e-01,-1.070582196116447449e-01,-1.546449512243270874e-01,-1.686017364263534546e-01,-4.789306595921516418e-02,8.102212101221084595e-03,7.692742347717285156e-02,-2.841070294380187988e-02,-5.748239159584045410e-02,-2.683786116540431976e-02,-1.947286725044250488e-02,1.798260807991027832e-01,1.607876569032669067e-01,-1.730238087475299835e-02,-1.513388659805059433e-02,-1.794284433126449585e-01,-2.497498691082000732e-01,-8.041700720787048340e-02,-6.016719341278076172e-02,-4.241588339209556580e-02,1.730005443096160889e-01,3.727593719959259033e-01,1.446247249841690063e-01,1.756573794409632683e-03,1.103051453828811646e-01,5.649549514055252075e-02,7.164008449763059616e-03,-6.965772807598114014e-02,-6.935137510299682617e-02,1.590657047927379608e-02,4.477726668119430542e-02,3.124421276152133942e-02,1.772160679101943970e-01,9.671943634748458862e-02,9.443720430135726929e-02,-2.722189761698246002e-02,-8.337839692831039429e-02,-6.253027915954589844e-02,-6.346315145492553711e-02,1.027889475226402283e-01,7.814552634954452515e-02,6.018112972378730774e-02,1.728669553995132446e-01,-1.003772718831896782e-03,-7.617151737213134766e-02,-1.156301647424697876e-01,-1.094051003456115723e-01,-4.845455288887023926e-02,1.703114956617355347e-01,2.126352488994598389e-01,1.513889431953430176e-02,-1.286962348967790604e-02,1.106462553143501282e-01,3.505836799740791321e-02,-3.542144224047660828e-02,-4.852360486984252930e-02,-3.375444933772087097e-02,8.157387375831604004e-02,-1.991898566484451294e-02,-2.075761742889881134e-02,-2.393070049583911896e-02,-5.187626183032989502e-02,-2.618934586644172668e-02,-8.488225191831588745e-02,-4.662512615323066711e-02,-2.882680110633373260e-02,-4.634075611829757690e-02,9.427989274263381958e-02,1.241541188210248947e-02,1.135542243719100952e-01,1.940474212169647217e-01,5.205433443188667297e-02,1.663816533982753754e-02,-4.604156687855720520e-02,3.414931520819664001e-02,1.706458628177642822e-01,1.460975408554077148e-01,1.246312484145164490e-01,4.436086863279342651e-02,-3.080780245363712311e-02,-6.942314654588699341e-02,-1.085811480879783630e-01,-1.637997925281524658e-01,-2.933614142239093781e-02,4.609980434179306030e-02,4.716783389449119568e-02,3.698688372969627380e-02,7.465749233961105347e-02,7.257993519306182861e-02,2.203846350312232971e-03,3.063741140067577362e-03,-7.256198208779096603e-03,-6.438673287630081177e-02,-8.050893992185592651e-02,-4.598345607519149780e-02,-2.952823415398597717e-02,-2.596395909786224365e-01,1.753188483417034149e-02,6.516424566507339478e-02,1.431447714567184448e-01,8.500570803880691528e-02,6.372385472059249878e-02,2.889008820056915283e-02,-2.952286228537559509e-02,-4.236359149217605591e-02,7.989569008350372314e-02,-9.331968426704406738e-02,-2.139530330896377563e-02,4.012894257903099060e-02,-2.676367200911045074e-02,-2.084841951727867126e-02,2.462541498243808746e-02,2.661841362714767456e-02,1.376449018716812134e-01,6.196556985378265381e-02,5.463149398565292358e-02,9.910085937008261681e-04,8.027556538581848145e-02,1.007184106856584549e-02,-8.216916769742965698e-02,-9.203179925680160522e-02,-4.073739424347877502e-02,-6.527485698461532593e-02,-4.208091273903846741e-02,-1.090267226099967957e-01,-7.230688631534576416e-02,1.129511445760726929e-01,5.692308023571968079e-02,7.995286583900451660e-02,-5.431994795799255371e-02,-6.267890334129333496e-02,-6.881055235862731934e-02,-9.535741060972213745e-02,-3.355256095528602600e-02,-1.426038891077041626e-01,-5.289300531148910522e-02,5.230166390538215637e-02,8.052085340023040771e-02,1.022496968507766724e-01,-6.545677781105041504e-03,1.655429452657699585e-01,2.048562914133071899e-01,2.183111310005187988e-01,1.413404643535614014e-01,5.488119646906852722e-02,2.746352739632129669e-02,-8.076972514390945435e-02,-6.208245828747749329e-02,-3.828094154596328735e-02,-2.858206816017627716e-02,-1.675580255687236786e-02,9.949252940714359283e-03,-6.683649867773056030e-02,-6.720566749572753906e-02,5.742043256759643555e-02,1.599014364182949066e-02,-7.382965646684169769e-03,8.304940536618232727e-03,-3.406596928834915161e-02,-9.518796950578689575e-02,-1.335804611444473267e-01,-9.812251478433609009e-02,-6.460338830947875977e-02,-6.162182614207267761e-02,-2.392635121941566467e-02,1.014430597424507141e-01,2.193979173898696899e-02,1.056170389056205750e-01,1.474073380231857300e-01,2.028699964284896851e-01,1.728253215551376343e-01,1.784978061914443970e-01,-1.080407388508319855e-02,3.434604778885841370e-02,-3.574047237634658813e-02,-4.607191309332847595e-02,-3.139615803956985474e-02,-8.897658437490463257e-02,-4.894912987947463989e-02,6.349954009056091309e-02,6.647330522537231445e-02,-6.408330053091049194e-02,7.401657849550247192e-02,9.661798924207687378e-02,-6.792130321264266968e-02,-2.145280316472053528e-02,-9.649965167045593262e-02,-3.138734772801399231e-02,-1.838521510362625122e-01,-1.452436447143554688e-01,-8.490554988384246826e-02,-2.224079817533493042e-01,-1.328438669443130493e-01,3.946207836270332336e-02,5.812010914087295532e-02,-3.349979594349861145e-02,1.427776515483856201e-01,2.637023925781250000e-01,2.134032845497131348e-01,1.875080019235610962e-01,4.463462159037590027e-02,2.015829272568225861e-02,-7.234588265419006348e-02,-6.958498805761337280e-02,-3.640591725707054138e-02,-8.342786133289337158e-02,-3.639201633632183075e-03,3.035928122699260712e-02,8.315871655941009521e-02,3.499855846166610718e-02,-1.545536071062088013e-01,-4.594879597425460815e-02,9.525505453348159790e-02,6.856183707714080811e-02,7.062638550996780396e-02,3.317209333181381226e-02,-4.879750777035951614e-03,-8.295995183289051056e-03,-1.741636097431182861e-01,-2.075612097978591919e-01,-7.239916920661926270e-02,1.627406664192676544e-02,9.017610549926757812e-02,9.197547286748886108e-02,2.372984886169433594e-01,3.498351871967315674e-01,2.785762548446655273e-01,2.896604835987091064e-01,1.067292913794517517e-01,3.350223600864410400e-02,-8.325585722923278809e-02,-9.389292448759078979e-02,-5.522594600915908813e-02,-8.616202324628829956e-02,-3.813789039850234985e-02,-1.540229842066764832e-02,-9.390142560005187988e-02,-2.625451385974884033e-01,-2.388954460620880127e-01,-1.309085637331008911e-01,7.951281033456325531e-03,-6.015891954302787781e-02,-5.748898535966873169e-02,-1.049158908426761627e-02,-5.867324024438858032e-02,3.113105334341526031e-02,1.965151168406009674e-02,-6.649147719144821167e-02,-4.944196343421936035e-02,-4.702084138989448547e-02,1.327198743820190430e-01,2.422800958156585693e-01,1.996047049760818481e-01,2.565812766551971436e-01,1.909659504890441895e-01,1.325753033161163330e-01,1.853796280920505524e-02,-2.140555344521999359e-02,-4.206701740622520447e-02,-4.065773636102676392e-02,-7.615761458873748779e-02,-3.554015606641769409e-02,-3.147593140602111816e-02,-6.026116758584976196e-02,-1.602929085493087769e-01,-1.206831112504005432e-01,-1.063584461808204651e-01,-1.443985998630523682e-01,2.754471637308597565e-02,6.958463042974472046e-02,-3.442454850301146507e-03,-1.617678999900817871e-01,-5.976796895265579224e-02,9.583169966936111450e-02,-1.752512715756893158e-02,1.135689206421375275e-02,3.474249318242073059e-02,9.538674354553222656e-02,9.221932291984558105e-02,4.910131171345710754e-02,7.569248974323272705e-02,6.688223034143447876e-02,2.896357141435146332e-02,3.405566141009330750e-02,-3.873178735375404358e-02,-6.865271180868148804e-02,-9.647259116172790527e-02,-3.516522794961929321e-02,-9.287486225366592407e-02,-6.466654688119888306e-02,-2.727352455258369446e-02,-2.869440801441669464e-02,-2.405819855630397797e-02,-2.632272057235240936e-02,-7.788448780775070190e-02,-1.280812621116638184e-01,-1.883926242589950562e-01,-1.552333533763885498e-01,-4.525028541684150696e-02,-6.189123913645744324e-02,-1.371046006679534912e-01,-2.123418450355529785e-01,-1.933812648057937622e-01,-1.365474760532379150e-01,-8.803177624940872192e-02,-8.153744786977767944e-02,-9.735593199729919434e-02,-1.317747831344604492e-01,-3.028402663767337799e-02,-3.706074133515357971e-02,-6.431271880865097046e-02,-5.217866972088813782e-02,-8.307777345180511475e-02,-4.685265198349952698e-02,-3.949510678648948669e-02,-6.380864232778549194e-02,-3.356609120965003967e-02,-4.633060470223426819e-02,-8.266484737396240234e-02,-6.071228533983230591e-02,-2.896740287542343140e-02,-6.658606231212615967e-02,-6.506117433309555054e-02,-8.954223245382308960e-02,-4.334899410605430603e-02,-9.865178912878036499e-02,-8.636163175106048584e-02,-3.461407870054244995e-02,-7.304658740758895874e-02,-1.040853261947631836e-01,-9.546333551406860352e-02,-4.530788585543632507e-02,-1.044358536601066589e-01,-9.067687392234802246e-02,-1.021821573376655579e-01,-7.582138478755950928e-02,-9.780953824520111084e-02,-4.888127371668815613e-02,-7.575339823961257935e-02,-7.924067974090576172e-02,-7.740180939435958862e-02,-2.653169445693492889e-02,-3.462680429220199585e-02,-2.760830335319042206e-02
